tree
version=v3
num_class=1
num_tree_per_iteration=1
label_index=0
max_feature_idx=2999
objective=binary sigmoid:1
feature_names=Column_0 Column_1 Column_2 Column_3 Column_4 Column_5 Column_6 Column_7 Column_8 Column_9 Column_10 Column_11 Column_12 Column_13 Column_14 Column_15 Column_16 Column_17 Column_18 Column_19 Column_20 Column_21 Column_22 Column_23 Column_24 Column_25 Column_26 Column_27 Column_28 Column_29 Column_30 Column_31 Column_32 Column_33 Column_34 Column_35 Column_36 Column_37 Column_38 Column_39 Column_40 Column_41 Column_42 Column_43 Column_44 Column_45 Column_46 Column_47 Column_48 Column_49 Column_50 Column_51 Column_52 Column_53 Column_54 Column_55 Column_56 Column_57 Column_58 Column_59 Column_60 Column_61 Column_62 Column_63 Column_64 Column_65 Column_66 Column_67 Column_68 Column_69 Column_70 Column_71 Column_72 Column_73 Column_74 Column_75 Column_76 Column_77 Column_78 Column_79 Column_80 Column_81 Column_82 Column_83 Column_84 Column_85 Column_86 Column_87 Column_88 Column_89 Column_90 Column_91 Column_92 Column_93 Column_94 Column_95 Column_96 Column_97 Column_98 Column_99 Column_100 Column_101 Column_102 Column_103 Column_104 Column_105 Column_106 Column_107 Column_108 Column_109 Column_110 Column_111 Column_112 Column_113 Column_114 Column_115 Column_116 Column_117 Column_118 Column_119 Column_120 Column_121 Column_122 Column_123 Column_124 Column_125 Column_126 Column_127 Column_128 Column_129 Column_130 Column_131 Column_132 Column_133 Column_134 Column_135 Column_136 Column_137 Column_138 Column_139 Column_140 Column_141 Column_142 Column_143 Column_144 Column_145 Column_146 Column_147 Column_148 Column_149 Column_150 Column_151 Column_152 Column_153 Column_154 Column_155 Column_156 Column_157 Column_158 Column_159 Column_160 Column_161 Column_162 Column_163 Column_164 Column_165 Column_166 Column_167 Column_168 Column_169 Column_170 Column_171 Column_172 Column_173 Column_174 Column_175 Column_176 Column_177 Column_178 Column_179 Column_180 Column_181 Column_182 Column_183 Column_184 Column_185 Column_186 Column_187 Column_188 Column_189 Column_190 Column_191 Column_192 Column_193 Column_194 Column_195 Column_196 Column_197 Column_198 Column_199 Column_200 Column_201 Column_202 Column_203 Column_204 Column_205 Column_206 Column_207 Column_208 Column_209 Column_210 Column_211 Column_212 Column_213 Column_214 Column_215 Column_216 Column_217 Column_218 Column_219 Column_220 Column_221 Column_222 Column_223 Column_224 Column_225 Column_226 Column_227 Column_228 Column_229 Column_230 Column_231 Column_232 Column_233 Column_234 Column_235 Column_236 Column_237 Column_238 Column_239 Column_240 Column_241 Column_242 Column_243 Column_244 Column_245 Column_246 Column_247 Column_248 Column_249 Column_250 Column_251 Column_252 Column_253 Column_254 Column_255 Column_256 Column_257 Column_258 Column_259 Column_260 Column_261 Column_262 Column_263 Column_264 Column_265 Column_266 Column_267 Column_268 Column_269 Column_270 Column_271 Column_272 Column_273 Column_274 Column_275 Column_276 Column_277 Column_278 Column_279 Column_280 Column_281 Column_282 Column_283 Column_284 Column_285 Column_286 Column_287 Column_288 Column_289 Column_290 Column_291 Column_292 Column_293 Column_294 Column_295 Column_296 Column_297 Column_298 Column_299 Column_300 Column_301 Column_302 Column_303 Column_304 Column_305 Column_306 Column_307 Column_308 Column_309 Column_310 Column_311 Column_312 Column_313 Column_314 Column_315 Column_316 Column_317 Column_318 Column_319 Column_320 Column_321 Column_322 Column_323 Column_324 Column_325 Column_326 Column_327 Column_328 Column_329 Column_330 Column_331 Column_332 Column_333 Column_334 Column_335 Column_336 Column_337 Column_338 Column_339 Column_340 Column_341 Column_342 Column_343 Column_344 Column_345 Column_346 Column_347 Column_348 Column_349 Column_350 Column_351 Column_352 Column_353 Column_354 Column_355 Column_356 Column_357 Column_358 Column_359 Column_360 Column_361 Column_362 Column_363 Column_364 Column_365 Column_366 Column_367 Column_368 Column_369 Column_370 Column_371 Column_372 Column_373 Column_374 Column_375 Column_376 Column_377 Column_378 Column_379 Column_380 Column_381 Column_382 Column_383 Column_384 Column_385 Column_386 Column_387 Column_388 Column_389 Column_390 Column_391 Column_392 Column_393 Column_394 Column_395 Column_396 Column_397 Column_398 Column_399 Column_400 Column_401 Column_402 Column_403 Column_404 Column_405 Column_406 Column_407 Column_408 Column_409 Column_410 Column_411 Column_412 Column_413 Column_414 Column_415 Column_416 Column_417 Column_418 Column_419 Column_420 Column_421 Column_422 Column_423 Column_424 Column_425 Column_426 Column_427 Column_428 Column_429 Column_430 Column_431 Column_432 Column_433 Column_434 Column_435 Column_436 Column_437 Column_438 Column_439 Column_440 Column_441 Column_442 Column_443 Column_444 Column_445 Column_446 Column_447 Column_448 Column_449 Column_450 Column_451 Column_452 Column_453 Column_454 Column_455 Column_456 Column_457 Column_458 Column_459 Column_460 Column_461 Column_462 Column_463 Column_464 Column_465 Column_466 Column_467 Column_468 Column_469 Column_470 Column_471 Column_472 Column_473 Column_474 Column_475 Column_476 Column_477 Column_478 Column_479 Column_480 Column_481 Column_482 Column_483 Column_484 Column_485 Column_486 Column_487 Column_488 Column_489 Column_490 Column_491 Column_492 Column_493 Column_494 Column_495 Column_496 Column_497 Column_498 Column_499 Column_500 Column_501 Column_502 Column_503 Column_504 Column_505 Column_506 Column_507 Column_508 Column_509 Column_510 Column_511 Column_512 Column_513 Column_514 Column_515 Column_516 Column_517 Column_518 Column_519 Column_520 Column_521 Column_522 Column_523 Column_524 Column_525 Column_526 Column_527 Column_528 Column_529 Column_530 Column_531 Column_532 Column_533 Column_534 Column_535 Column_536 Column_537 Column_538 Column_539 Column_540 Column_541 Column_542 Column_543 Column_544 Column_545 Column_546 Column_547 Column_548 Column_549 Column_550 Column_551 Column_552 Column_553 Column_554 Column_555 Column_556 Column_557 Column_558 Column_559 Column_560 Column_561 Column_562 Column_563 Column_564 Column_565 Column_566 Column_567 Column_568 Column_569 Column_570 Column_571 Column_572 Column_573 Column_574 Column_575 Column_576 Column_577 Column_578 Column_579 Column_580 Column_581 Column_582 Column_583 Column_584 Column_585 Column_586 Column_587 Column_588 Column_589 Column_590 Column_591 Column_592 Column_593 Column_594 Column_595 Column_596 Column_597 Column_598 Column_599 Column_600 Column_601 Column_602 Column_603 Column_604 Column_605 Column_606 Column_607 Column_608 Column_609 Column_610 Column_611 Column_612 Column_613 Column_614 Column_615 Column_616 Column_617 Column_618 Column_619 Column_620 Column_621 Column_622 Column_623 Column_624 Column_625 Column_626 Column_627 Column_628 Column_629 Column_630 Column_631 Column_632 Column_633 Column_634 Column_635 Column_636 Column_637 Column_638 Column_639 Column_640 Column_641 Column_642 Column_643 Column_644 Column_645 Column_646 Column_647 Column_648 Column_649 Column_650 Column_651 Column_652 Column_653 Column_654 Column_655 Column_656 Column_657 Column_658 Column_659 Column_660 Column_661 Column_662 Column_663 Column_664 Column_665 Column_666 Column_667 Column_668 Column_669 Column_670 Column_671 Column_672 Column_673 Column_674 Column_675 Column_676 Column_677 Column_678 Column_679 Column_680 Column_681 Column_682 Column_683 Column_684 Column_685 Column_686 Column_687 Column_688 Column_689 Column_690 Column_691 Column_692 Column_693 Column_694 Column_695 Column_696 Column_697 Column_698 Column_699 Column_700 Column_701 Column_702 Column_703 Column_704 Column_705 Column_706 Column_707 Column_708 Column_709 Column_710 Column_711 Column_712 Column_713 Column_714 Column_715 Column_716 Column_717 Column_718 Column_719 Column_720 Column_721 Column_722 Column_723 Column_724 Column_725 Column_726 Column_727 Column_728 Column_729 Column_730 Column_731 Column_732 Column_733 Column_734 Column_735 Column_736 Column_737 Column_738 Column_739 Column_740 Column_741 Column_742 Column_743 Column_744 Column_745 Column_746 Column_747 Column_748 Column_749 Column_750 Column_751 Column_752 Column_753 Column_754 Column_755 Column_756 Column_757 Column_758 Column_759 Column_760 Column_761 Column_762 Column_763 Column_764 Column_765 Column_766 Column_767 Column_768 Column_769 Column_770 Column_771 Column_772 Column_773 Column_774 Column_775 Column_776 Column_777 Column_778 Column_779 Column_780 Column_781 Column_782 Column_783 Column_784 Column_785 Column_786 Column_787 Column_788 Column_789 Column_790 Column_791 Column_792 Column_793 Column_794 Column_795 Column_796 Column_797 Column_798 Column_799 Column_800 Column_801 Column_802 Column_803 Column_804 Column_805 Column_806 Column_807 Column_808 Column_809 Column_810 Column_811 Column_812 Column_813 Column_814 Column_815 Column_816 Column_817 Column_818 Column_819 Column_820 Column_821 Column_822 Column_823 Column_824 Column_825 Column_826 Column_827 Column_828 Column_829 Column_830 Column_831 Column_832 Column_833 Column_834 Column_835 Column_836 Column_837 Column_838 Column_839 Column_840 Column_841 Column_842 Column_843 Column_844 Column_845 Column_846 Column_847 Column_848 Column_849 Column_850 Column_851 Column_852 Column_853 Column_854 Column_855 Column_856 Column_857 Column_858 Column_859 Column_860 Column_861 Column_862 Column_863 Column_864 Column_865 Column_866 Column_867 Column_868 Column_869 Column_870 Column_871 Column_872 Column_873 Column_874 Column_875 Column_876 Column_877 Column_878 Column_879 Column_880 Column_881 Column_882 Column_883 Column_884 Column_885 Column_886 Column_887 Column_888 Column_889 Column_890 Column_891 Column_892 Column_893 Column_894 Column_895 Column_896 Column_897 Column_898 Column_899 Column_900 Column_901 Column_902 Column_903 Column_904 Column_905 Column_906 Column_907 Column_908 Column_909 Column_910 Column_911 Column_912 Column_913 Column_914 Column_915 Column_916 Column_917 Column_918 Column_919 Column_920 Column_921 Column_922 Column_923 Column_924 Column_925 Column_926 Column_927 Column_928 Column_929 Column_930 Column_931 Column_932 Column_933 Column_934 Column_935 Column_936 Column_937 Column_938 Column_939 Column_940 Column_941 Column_942 Column_943 Column_944 Column_945 Column_946 Column_947 Column_948 Column_949 Column_950 Column_951 Column_952 Column_953 Column_954 Column_955 Column_956 Column_957 Column_958 Column_959 Column_960 Column_961 Column_962 Column_963 Column_964 Column_965 Column_966 Column_967 Column_968 Column_969 Column_970 Column_971 Column_972 Column_973 Column_974 Column_975 Column_976 Column_977 Column_978 Column_979 Column_980 Column_981 Column_982 Column_983 Column_984 Column_985 Column_986 Column_987 Column_988 Column_989 Column_990 Column_991 Column_992 Column_993 Column_994 Column_995 Column_996 Column_997 Column_998 Column_999 Column_1000 Column_1001 Column_1002 Column_1003 Column_1004 Column_1005 Column_1006 Column_1007 Column_1008 Column_1009 Column_1010 Column_1011 Column_1012 Column_1013 Column_1014 Column_1015 Column_1016 Column_1017 Column_1018 Column_1019 Column_1020 Column_1021 Column_1022 Column_1023 Column_1024 Column_1025 Column_1026 Column_1027 Column_1028 Column_1029 Column_1030 Column_1031 Column_1032 Column_1033 Column_1034 Column_1035 Column_1036 Column_1037 Column_1038 Column_1039 Column_1040 Column_1041 Column_1042 Column_1043 Column_1044 Column_1045 Column_1046 Column_1047 Column_1048 Column_1049 Column_1050 Column_1051 Column_1052 Column_1053 Column_1054 Column_1055 Column_1056 Column_1057 Column_1058 Column_1059 Column_1060 Column_1061 Column_1062 Column_1063 Column_1064 Column_1065 Column_1066 Column_1067 Column_1068 Column_1069 Column_1070 Column_1071 Column_1072 Column_1073 Column_1074 Column_1075 Column_1076 Column_1077 Column_1078 Column_1079 Column_1080 Column_1081 Column_1082 Column_1083 Column_1084 Column_1085 Column_1086 Column_1087 Column_1088 Column_1089 Column_1090 Column_1091 Column_1092 Column_1093 Column_1094 Column_1095 Column_1096 Column_1097 Column_1098 Column_1099 Column_1100 Column_1101 Column_1102 Column_1103 Column_1104 Column_1105 Column_1106 Column_1107 Column_1108 Column_1109 Column_1110 Column_1111 Column_1112 Column_1113 Column_1114 Column_1115 Column_1116 Column_1117 Column_1118 Column_1119 Column_1120 Column_1121 Column_1122 Column_1123 Column_1124 Column_1125 Column_1126 Column_1127 Column_1128 Column_1129 Column_1130 Column_1131 Column_1132 Column_1133 Column_1134 Column_1135 Column_1136 Column_1137 Column_1138 Column_1139 Column_1140 Column_1141 Column_1142 Column_1143 Column_1144 Column_1145 Column_1146 Column_1147 Column_1148 Column_1149 Column_1150 Column_1151 Column_1152 Column_1153 Column_1154 Column_1155 Column_1156 Column_1157 Column_1158 Column_1159 Column_1160 Column_1161 Column_1162 Column_1163 Column_1164 Column_1165 Column_1166 Column_1167 Column_1168 Column_1169 Column_1170 Column_1171 Column_1172 Column_1173 Column_1174 Column_1175 Column_1176 Column_1177 Column_1178 Column_1179 Column_1180 Column_1181 Column_1182 Column_1183 Column_1184 Column_1185 Column_1186 Column_1187 Column_1188 Column_1189 Column_1190 Column_1191 Column_1192 Column_1193 Column_1194 Column_1195 Column_1196 Column_1197 Column_1198 Column_1199 Column_1200 Column_1201 Column_1202 Column_1203 Column_1204 Column_1205 Column_1206 Column_1207 Column_1208 Column_1209 Column_1210 Column_1211 Column_1212 Column_1213 Column_1214 Column_1215 Column_1216 Column_1217 Column_1218 Column_1219 Column_1220 Column_1221 Column_1222 Column_1223 Column_1224 Column_1225 Column_1226 Column_1227 Column_1228 Column_1229 Column_1230 Column_1231 Column_1232 Column_1233 Column_1234 Column_1235 Column_1236 Column_1237 Column_1238 Column_1239 Column_1240 Column_1241 Column_1242 Column_1243 Column_1244 Column_1245 Column_1246 Column_1247 Column_1248 Column_1249 Column_1250 Column_1251 Column_1252 Column_1253 Column_1254 Column_1255 Column_1256 Column_1257 Column_1258 Column_1259 Column_1260 Column_1261 Column_1262 Column_1263 Column_1264 Column_1265 Column_1266 Column_1267 Column_1268 Column_1269 Column_1270 Column_1271 Column_1272 Column_1273 Column_1274 Column_1275 Column_1276 Column_1277 Column_1278 Column_1279 Column_1280 Column_1281 Column_1282 Column_1283 Column_1284 Column_1285 Column_1286 Column_1287 Column_1288 Column_1289 Column_1290 Column_1291 Column_1292 Column_1293 Column_1294 Column_1295 Column_1296 Column_1297 Column_1298 Column_1299 Column_1300 Column_1301 Column_1302 Column_1303 Column_1304 Column_1305 Column_1306 Column_1307 Column_1308 Column_1309 Column_1310 Column_1311 Column_1312 Column_1313 Column_1314 Column_1315 Column_1316 Column_1317 Column_1318 Column_1319 Column_1320 Column_1321 Column_1322 Column_1323 Column_1324 Column_1325 Column_1326 Column_1327 Column_1328 Column_1329 Column_1330 Column_1331 Column_1332 Column_1333 Column_1334 Column_1335 Column_1336 Column_1337 Column_1338 Column_1339 Column_1340 Column_1341 Column_1342 Column_1343 Column_1344 Column_1345 Column_1346 Column_1347 Column_1348 Column_1349 Column_1350 Column_1351 Column_1352 Column_1353 Column_1354 Column_1355 Column_1356 Column_1357 Column_1358 Column_1359 Column_1360 Column_1361 Column_1362 Column_1363 Column_1364 Column_1365 Column_1366 Column_1367 Column_1368 Column_1369 Column_1370 Column_1371 Column_1372 Column_1373 Column_1374 Column_1375 Column_1376 Column_1377 Column_1378 Column_1379 Column_1380 Column_1381 Column_1382 Column_1383 Column_1384 Column_1385 Column_1386 Column_1387 Column_1388 Column_1389 Column_1390 Column_1391 Column_1392 Column_1393 Column_1394 Column_1395 Column_1396 Column_1397 Column_1398 Column_1399 Column_1400 Column_1401 Column_1402 Column_1403 Column_1404 Column_1405 Column_1406 Column_1407 Column_1408 Column_1409 Column_1410 Column_1411 Column_1412 Column_1413 Column_1414 Column_1415 Column_1416 Column_1417 Column_1418 Column_1419 Column_1420 Column_1421 Column_1422 Column_1423 Column_1424 Column_1425 Column_1426 Column_1427 Column_1428 Column_1429 Column_1430 Column_1431 Column_1432 Column_1433 Column_1434 Column_1435 Column_1436 Column_1437 Column_1438 Column_1439 Column_1440 Column_1441 Column_1442 Column_1443 Column_1444 Column_1445 Column_1446 Column_1447 Column_1448 Column_1449 Column_1450 Column_1451 Column_1452 Column_1453 Column_1454 Column_1455 Column_1456 Column_1457 Column_1458 Column_1459 Column_1460 Column_1461 Column_1462 Column_1463 Column_1464 Column_1465 Column_1466 Column_1467 Column_1468 Column_1469 Column_1470 Column_1471 Column_1472 Column_1473 Column_1474 Column_1475 Column_1476 Column_1477 Column_1478 Column_1479 Column_1480 Column_1481 Column_1482 Column_1483 Column_1484 Column_1485 Column_1486 Column_1487 Column_1488 Column_1489 Column_1490 Column_1491 Column_1492 Column_1493 Column_1494 Column_1495 Column_1496 Column_1497 Column_1498 Column_1499 Column_1500 Column_1501 Column_1502 Column_1503 Column_1504 Column_1505 Column_1506 Column_1507 Column_1508 Column_1509 Column_1510 Column_1511 Column_1512 Column_1513 Column_1514 Column_1515 Column_1516 Column_1517 Column_1518 Column_1519 Column_1520 Column_1521 Column_1522 Column_1523 Column_1524 Column_1525 Column_1526 Column_1527 Column_1528 Column_1529 Column_1530 Column_1531 Column_1532 Column_1533 Column_1534 Column_1535 Column_1536 Column_1537 Column_1538 Column_1539 Column_1540 Column_1541 Column_1542 Column_1543 Column_1544 Column_1545 Column_1546 Column_1547 Column_1548 Column_1549 Column_1550 Column_1551 Column_1552 Column_1553 Column_1554 Column_1555 Column_1556 Column_1557 Column_1558 Column_1559 Column_1560 Column_1561 Column_1562 Column_1563 Column_1564 Column_1565 Column_1566 Column_1567 Column_1568 Column_1569 Column_1570 Column_1571 Column_1572 Column_1573 Column_1574 Column_1575 Column_1576 Column_1577 Column_1578 Column_1579 Column_1580 Column_1581 Column_1582 Column_1583 Column_1584 Column_1585 Column_1586 Column_1587 Column_1588 Column_1589 Column_1590 Column_1591 Column_1592 Column_1593 Column_1594 Column_1595 Column_1596 Column_1597 Column_1598 Column_1599 Column_1600 Column_1601 Column_1602 Column_1603 Column_1604 Column_1605 Column_1606 Column_1607 Column_1608 Column_1609 Column_1610 Column_1611 Column_1612 Column_1613 Column_1614 Column_1615 Column_1616 Column_1617 Column_1618 Column_1619 Column_1620 Column_1621 Column_1622 Column_1623 Column_1624 Column_1625 Column_1626 Column_1627 Column_1628 Column_1629 Column_1630 Column_1631 Column_1632 Column_1633 Column_1634 Column_1635 Column_1636 Column_1637 Column_1638 Column_1639 Column_1640 Column_1641 Column_1642 Column_1643 Column_1644 Column_1645 Column_1646 Column_1647 Column_1648 Column_1649 Column_1650 Column_1651 Column_1652 Column_1653 Column_1654 Column_1655 Column_1656 Column_1657 Column_1658 Column_1659 Column_1660 Column_1661 Column_1662 Column_1663 Column_1664 Column_1665 Column_1666 Column_1667 Column_1668 Column_1669 Column_1670 Column_1671 Column_1672 Column_1673 Column_1674 Column_1675 Column_1676 Column_1677 Column_1678 Column_1679 Column_1680 Column_1681 Column_1682 Column_1683 Column_1684 Column_1685 Column_1686 Column_1687 Column_1688 Column_1689 Column_1690 Column_1691 Column_1692 Column_1693 Column_1694 Column_1695 Column_1696 Column_1697 Column_1698 Column_1699 Column_1700 Column_1701 Column_1702 Column_1703 Column_1704 Column_1705 Column_1706 Column_1707 Column_1708 Column_1709 Column_1710 Column_1711 Column_1712 Column_1713 Column_1714 Column_1715 Column_1716 Column_1717 Column_1718 Column_1719 Column_1720 Column_1721 Column_1722 Column_1723 Column_1724 Column_1725 Column_1726 Column_1727 Column_1728 Column_1729 Column_1730 Column_1731 Column_1732 Column_1733 Column_1734 Column_1735 Column_1736 Column_1737 Column_1738 Column_1739 Column_1740 Column_1741 Column_1742 Column_1743 Column_1744 Column_1745 Column_1746 Column_1747 Column_1748 Column_1749 Column_1750 Column_1751 Column_1752 Column_1753 Column_1754 Column_1755 Column_1756 Column_1757 Column_1758 Column_1759 Column_1760 Column_1761 Column_1762 Column_1763 Column_1764 Column_1765 Column_1766 Column_1767 Column_1768 Column_1769 Column_1770 Column_1771 Column_1772 Column_1773 Column_1774 Column_1775 Column_1776 Column_1777 Column_1778 Column_1779 Column_1780 Column_1781 Column_1782 Column_1783 Column_1784 Column_1785 Column_1786 Column_1787 Column_1788 Column_1789 Column_1790 Column_1791 Column_1792 Column_1793 Column_1794 Column_1795 Column_1796 Column_1797 Column_1798 Column_1799 Column_1800 Column_1801 Column_1802 Column_1803 Column_1804 Column_1805 Column_1806 Column_1807 Column_1808 Column_1809 Column_1810 Column_1811 Column_1812 Column_1813 Column_1814 Column_1815 Column_1816 Column_1817 Column_1818 Column_1819 Column_1820 Column_1821 Column_1822 Column_1823 Column_1824 Column_1825 Column_1826 Column_1827 Column_1828 Column_1829 Column_1830 Column_1831 Column_1832 Column_1833 Column_1834 Column_1835 Column_1836 Column_1837 Column_1838 Column_1839 Column_1840 Column_1841 Column_1842 Column_1843 Column_1844 Column_1845 Column_1846 Column_1847 Column_1848 Column_1849 Column_1850 Column_1851 Column_1852 Column_1853 Column_1854 Column_1855 Column_1856 Column_1857 Column_1858 Column_1859 Column_1860 Column_1861 Column_1862 Column_1863 Column_1864 Column_1865 Column_1866 Column_1867 Column_1868 Column_1869 Column_1870 Column_1871 Column_1872 Column_1873 Column_1874 Column_1875 Column_1876 Column_1877 Column_1878 Column_1879 Column_1880 Column_1881 Column_1882 Column_1883 Column_1884 Column_1885 Column_1886 Column_1887 Column_1888 Column_1889 Column_1890 Column_1891 Column_1892 Column_1893 Column_1894 Column_1895 Column_1896 Column_1897 Column_1898 Column_1899 Column_1900 Column_1901 Column_1902 Column_1903 Column_1904 Column_1905 Column_1906 Column_1907 Column_1908 Column_1909 Column_1910 Column_1911 Column_1912 Column_1913 Column_1914 Column_1915 Column_1916 Column_1917 Column_1918 Column_1919 Column_1920 Column_1921 Column_1922 Column_1923 Column_1924 Column_1925 Column_1926 Column_1927 Column_1928 Column_1929 Column_1930 Column_1931 Column_1932 Column_1933 Column_1934 Column_1935 Column_1936 Column_1937 Column_1938 Column_1939 Column_1940 Column_1941 Column_1942 Column_1943 Column_1944 Column_1945 Column_1946 Column_1947 Column_1948 Column_1949 Column_1950 Column_1951 Column_1952 Column_1953 Column_1954 Column_1955 Column_1956 Column_1957 Column_1958 Column_1959 Column_1960 Column_1961 Column_1962 Column_1963 Column_1964 Column_1965 Column_1966 Column_1967 Column_1968 Column_1969 Column_1970 Column_1971 Column_1972 Column_1973 Column_1974 Column_1975 Column_1976 Column_1977 Column_1978 Column_1979 Column_1980 Column_1981 Column_1982 Column_1983 Column_1984 Column_1985 Column_1986 Column_1987 Column_1988 Column_1989 Column_1990 Column_1991 Column_1992 Column_1993 Column_1994 Column_1995 Column_1996 Column_1997 Column_1998 Column_1999 Column_2000 Column_2001 Column_2002 Column_2003 Column_2004 Column_2005 Column_2006 Column_2007 Column_2008 Column_2009 Column_2010 Column_2011 Column_2012 Column_2013 Column_2014 Column_2015 Column_2016 Column_2017 Column_2018 Column_2019 Column_2020 Column_2021 Column_2022 Column_2023 Column_2024 Column_2025 Column_2026 Column_2027 Column_2028 Column_2029 Column_2030 Column_2031 Column_2032 Column_2033 Column_2034 Column_2035 Column_2036 Column_2037 Column_2038 Column_2039 Column_2040 Column_2041 Column_2042 Column_2043 Column_2044 Column_2045 Column_2046 Column_2047 Column_2048 Column_2049 Column_2050 Column_2051 Column_2052 Column_2053 Column_2054 Column_2055 Column_2056 Column_2057 Column_2058 Column_2059 Column_2060 Column_2061 Column_2062 Column_2063 Column_2064 Column_2065 Column_2066 Column_2067 Column_2068 Column_2069 Column_2070 Column_2071 Column_2072 Column_2073 Column_2074 Column_2075 Column_2076 Column_2077 Column_2078 Column_2079 Column_2080 Column_2081 Column_2082 Column_2083 Column_2084 Column_2085 Column_2086 Column_2087 Column_2088 Column_2089 Column_2090 Column_2091 Column_2092 Column_2093 Column_2094 Column_2095 Column_2096 Column_2097 Column_2098 Column_2099 Column_2100 Column_2101 Column_2102 Column_2103 Column_2104 Column_2105 Column_2106 Column_2107 Column_2108 Column_2109 Column_2110 Column_2111 Column_2112 Column_2113 Column_2114 Column_2115 Column_2116 Column_2117 Column_2118 Column_2119 Column_2120 Column_2121 Column_2122 Column_2123 Column_2124 Column_2125 Column_2126 Column_2127 Column_2128 Column_2129 Column_2130 Column_2131 Column_2132 Column_2133 Column_2134 Column_2135 Column_2136 Column_2137 Column_2138 Column_2139 Column_2140 Column_2141 Column_2142 Column_2143 Column_2144 Column_2145 Column_2146 Column_2147 Column_2148 Column_2149 Column_2150 Column_2151 Column_2152 Column_2153 Column_2154 Column_2155 Column_2156 Column_2157 Column_2158 Column_2159 Column_2160 Column_2161 Column_2162 Column_2163 Column_2164 Column_2165 Column_2166 Column_2167 Column_2168 Column_2169 Column_2170 Column_2171 Column_2172 Column_2173 Column_2174 Column_2175 Column_2176 Column_2177 Column_2178 Column_2179 Column_2180 Column_2181 Column_2182 Column_2183 Column_2184 Column_2185 Column_2186 Column_2187 Column_2188 Column_2189 Column_2190 Column_2191 Column_2192 Column_2193 Column_2194 Column_2195 Column_2196 Column_2197 Column_2198 Column_2199 Column_2200 Column_2201 Column_2202 Column_2203 Column_2204 Column_2205 Column_2206 Column_2207 Column_2208 Column_2209 Column_2210 Column_2211 Column_2212 Column_2213 Column_2214 Column_2215 Column_2216 Column_2217 Column_2218 Column_2219 Column_2220 Column_2221 Column_2222 Column_2223 Column_2224 Column_2225 Column_2226 Column_2227 Column_2228 Column_2229 Column_2230 Column_2231 Column_2232 Column_2233 Column_2234 Column_2235 Column_2236 Column_2237 Column_2238 Column_2239 Column_2240 Column_2241 Column_2242 Column_2243 Column_2244 Column_2245 Column_2246 Column_2247 Column_2248 Column_2249 Column_2250 Column_2251 Column_2252 Column_2253 Column_2254 Column_2255 Column_2256 Column_2257 Column_2258 Column_2259 Column_2260 Column_2261 Column_2262 Column_2263 Column_2264 Column_2265 Column_2266 Column_2267 Column_2268 Column_2269 Column_2270 Column_2271 Column_2272 Column_2273 Column_2274 Column_2275 Column_2276 Column_2277 Column_2278 Column_2279 Column_2280 Column_2281 Column_2282 Column_2283 Column_2284 Column_2285 Column_2286 Column_2287 Column_2288 Column_2289 Column_2290 Column_2291 Column_2292 Column_2293 Column_2294 Column_2295 Column_2296 Column_2297 Column_2298 Column_2299 Column_2300 Column_2301 Column_2302 Column_2303 Column_2304 Column_2305 Column_2306 Column_2307 Column_2308 Column_2309 Column_2310 Column_2311 Column_2312 Column_2313 Column_2314 Column_2315 Column_2316 Column_2317 Column_2318 Column_2319 Column_2320 Column_2321 Column_2322 Column_2323 Column_2324 Column_2325 Column_2326 Column_2327 Column_2328 Column_2329 Column_2330 Column_2331 Column_2332 Column_2333 Column_2334 Column_2335 Column_2336 Column_2337 Column_2338 Column_2339 Column_2340 Column_2341 Column_2342 Column_2343 Column_2344 Column_2345 Column_2346 Column_2347 Column_2348 Column_2349 Column_2350 Column_2351 Column_2352 Column_2353 Column_2354 Column_2355 Column_2356 Column_2357 Column_2358 Column_2359 Column_2360 Column_2361 Column_2362 Column_2363 Column_2364 Column_2365 Column_2366 Column_2367 Column_2368 Column_2369 Column_2370 Column_2371 Column_2372 Column_2373 Column_2374 Column_2375 Column_2376 Column_2377 Column_2378 Column_2379 Column_2380 Column_2381 Column_2382 Column_2383 Column_2384 Column_2385 Column_2386 Column_2387 Column_2388 Column_2389 Column_2390 Column_2391 Column_2392 Column_2393 Column_2394 Column_2395 Column_2396 Column_2397 Column_2398 Column_2399 Column_2400 Column_2401 Column_2402 Column_2403 Column_2404 Column_2405 Column_2406 Column_2407 Column_2408 Column_2409 Column_2410 Column_2411 Column_2412 Column_2413 Column_2414 Column_2415 Column_2416 Column_2417 Column_2418 Column_2419 Column_2420 Column_2421 Column_2422 Column_2423 Column_2424 Column_2425 Column_2426 Column_2427 Column_2428 Column_2429 Column_2430 Column_2431 Column_2432 Column_2433 Column_2434 Column_2435 Column_2436 Column_2437 Column_2438 Column_2439 Column_2440 Column_2441 Column_2442 Column_2443 Column_2444 Column_2445 Column_2446 Column_2447 Column_2448 Column_2449 Column_2450 Column_2451 Column_2452 Column_2453 Column_2454 Column_2455 Column_2456 Column_2457 Column_2458 Column_2459 Column_2460 Column_2461 Column_2462 Column_2463 Column_2464 Column_2465 Column_2466 Column_2467 Column_2468 Column_2469 Column_2470 Column_2471 Column_2472 Column_2473 Column_2474 Column_2475 Column_2476 Column_2477 Column_2478 Column_2479 Column_2480 Column_2481 Column_2482 Column_2483 Column_2484 Column_2485 Column_2486 Column_2487 Column_2488 Column_2489 Column_2490 Column_2491 Column_2492 Column_2493 Column_2494 Column_2495 Column_2496 Column_2497 Column_2498 Column_2499 Column_2500 Column_2501 Column_2502 Column_2503 Column_2504 Column_2505 Column_2506 Column_2507 Column_2508 Column_2509 Column_2510 Column_2511 Column_2512 Column_2513 Column_2514 Column_2515 Column_2516 Column_2517 Column_2518 Column_2519 Column_2520 Column_2521 Column_2522 Column_2523 Column_2524 Column_2525 Column_2526 Column_2527 Column_2528 Column_2529 Column_2530 Column_2531 Column_2532 Column_2533 Column_2534 Column_2535 Column_2536 Column_2537 Column_2538 Column_2539 Column_2540 Column_2541 Column_2542 Column_2543 Column_2544 Column_2545 Column_2546 Column_2547 Column_2548 Column_2549 Column_2550 Column_2551 Column_2552 Column_2553 Column_2554 Column_2555 Column_2556 Column_2557 Column_2558 Column_2559 Column_2560 Column_2561 Column_2562 Column_2563 Column_2564 Column_2565 Column_2566 Column_2567 Column_2568 Column_2569 Column_2570 Column_2571 Column_2572 Column_2573 Column_2574 Column_2575 Column_2576 Column_2577 Column_2578 Column_2579 Column_2580 Column_2581 Column_2582 Column_2583 Column_2584 Column_2585 Column_2586 Column_2587 Column_2588 Column_2589 Column_2590 Column_2591 Column_2592 Column_2593 Column_2594 Column_2595 Column_2596 Column_2597 Column_2598 Column_2599 Column_2600 Column_2601 Column_2602 Column_2603 Column_2604 Column_2605 Column_2606 Column_2607 Column_2608 Column_2609 Column_2610 Column_2611 Column_2612 Column_2613 Column_2614 Column_2615 Column_2616 Column_2617 Column_2618 Column_2619 Column_2620 Column_2621 Column_2622 Column_2623 Column_2624 Column_2625 Column_2626 Column_2627 Column_2628 Column_2629 Column_2630 Column_2631 Column_2632 Column_2633 Column_2634 Column_2635 Column_2636 Column_2637 Column_2638 Column_2639 Column_2640 Column_2641 Column_2642 Column_2643 Column_2644 Column_2645 Column_2646 Column_2647 Column_2648 Column_2649 Column_2650 Column_2651 Column_2652 Column_2653 Column_2654 Column_2655 Column_2656 Column_2657 Column_2658 Column_2659 Column_2660 Column_2661 Column_2662 Column_2663 Column_2664 Column_2665 Column_2666 Column_2667 Column_2668 Column_2669 Column_2670 Column_2671 Column_2672 Column_2673 Column_2674 Column_2675 Column_2676 Column_2677 Column_2678 Column_2679 Column_2680 Column_2681 Column_2682 Column_2683 Column_2684 Column_2685 Column_2686 Column_2687 Column_2688 Column_2689 Column_2690 Column_2691 Column_2692 Column_2693 Column_2694 Column_2695 Column_2696 Column_2697 Column_2698 Column_2699 Column_2700 Column_2701 Column_2702 Column_2703 Column_2704 Column_2705 Column_2706 Column_2707 Column_2708 Column_2709 Column_2710 Column_2711 Column_2712 Column_2713 Column_2714 Column_2715 Column_2716 Column_2717 Column_2718 Column_2719 Column_2720 Column_2721 Column_2722 Column_2723 Column_2724 Column_2725 Column_2726 Column_2727 Column_2728 Column_2729 Column_2730 Column_2731 Column_2732 Column_2733 Column_2734 Column_2735 Column_2736 Column_2737 Column_2738 Column_2739 Column_2740 Column_2741 Column_2742 Column_2743 Column_2744 Column_2745 Column_2746 Column_2747 Column_2748 Column_2749 Column_2750 Column_2751 Column_2752 Column_2753 Column_2754 Column_2755 Column_2756 Column_2757 Column_2758 Column_2759 Column_2760 Column_2761 Column_2762 Column_2763 Column_2764 Column_2765 Column_2766 Column_2767 Column_2768 Column_2769 Column_2770 Column_2771 Column_2772 Column_2773 Column_2774 Column_2775 Column_2776 Column_2777 Column_2778 Column_2779 Column_2780 Column_2781 Column_2782 Column_2783 Column_2784 Column_2785 Column_2786 Column_2787 Column_2788 Column_2789 Column_2790 Column_2791 Column_2792 Column_2793 Column_2794 Column_2795 Column_2796 Column_2797 Column_2798 Column_2799 Column_2800 Column_2801 Column_2802 Column_2803 Column_2804 Column_2805 Column_2806 Column_2807 Column_2808 Column_2809 Column_2810 Column_2811 Column_2812 Column_2813 Column_2814 Column_2815 Column_2816 Column_2817 Column_2818 Column_2819 Column_2820 Column_2821 Column_2822 Column_2823 Column_2824 Column_2825 Column_2826 Column_2827 Column_2828 Column_2829 Column_2830 Column_2831 Column_2832 Column_2833 Column_2834 Column_2835 Column_2836 Column_2837 Column_2838 Column_2839 Column_2840 Column_2841 Column_2842 Column_2843 Column_2844 Column_2845 Column_2846 Column_2847 Column_2848 Column_2849 Column_2850 Column_2851 Column_2852 Column_2853 Column_2854 Column_2855 Column_2856 Column_2857 Column_2858 Column_2859 Column_2860 Column_2861 Column_2862 Column_2863 Column_2864 Column_2865 Column_2866 Column_2867 Column_2868 Column_2869 Column_2870 Column_2871 Column_2872 Column_2873 Column_2874 Column_2875 Column_2876 Column_2877 Column_2878 Column_2879 Column_2880 Column_2881 Column_2882 Column_2883 Column_2884 Column_2885 Column_2886 Column_2887 Column_2888 Column_2889 Column_2890 Column_2891 Column_2892 Column_2893 Column_2894 Column_2895 Column_2896 Column_2897 Column_2898 Column_2899 Column_2900 Column_2901 Column_2902 Column_2903 Column_2904 Column_2905 Column_2906 Column_2907 Column_2908 Column_2909 Column_2910 Column_2911 Column_2912 Column_2913 Column_2914 Column_2915 Column_2916 Column_2917 Column_2918 Column_2919 Column_2920 Column_2921 Column_2922 Column_2923 Column_2924 Column_2925 Column_2926 Column_2927 Column_2928 Column_2929 Column_2930 Column_2931 Column_2932 Column_2933 Column_2934 Column_2935 Column_2936 Column_2937 Column_2938 Column_2939 Column_2940 Column_2941 Column_2942 Column_2943 Column_2944 Column_2945 Column_2946 Column_2947 Column_2948 Column_2949 Column_2950 Column_2951 Column_2952 Column_2953 Column_2954 Column_2955 Column_2956 Column_2957 Column_2958 Column_2959 Column_2960 Column_2961 Column_2962 Column_2963 Column_2964 Column_2965 Column_2966 Column_2967 Column_2968 Column_2969 Column_2970 Column_2971 Column_2972 Column_2973 Column_2974 Column_2975 Column_2976 Column_2977 Column_2978 Column_2979 Column_2980 Column_2981 Column_2982 Column_2983 Column_2984 Column_2985 Column_2986 Column_2987 Column_2988 Column_2989 Column_2990 Column_2991 Column_2992 Column_2993 Column_2994 Column_2995 Column_2996 Column_2997 Column_2998 Column_2999
feature_infos=[0:244.39074157164367] [0:373.88628759775963] [0:227.94927772850474] [0:100.39815234641799] [0:299.76019822215824] [0:263.25278707544152] [0:53.182570485991874] [0:71.695245771635342] [0:84.888288365148128] [0:31.948127633576867] [0:68.487206164318835] [0:46.676965550009761] [0:117.01020640629307] [0:40.380417520897659] [0:67.276772029025338] [0:88.892213180499127] [0:32.777029664461772] [0:93.122487388475847] [0:19.034565042655061] [0:74.495924331231393] [0:70.491660173135898] [0:60.977856539259619] [0:35.033213111670889] [0:36.709043535118262] [0:55.473509328840997] [0:59.429629542811803] [0:53.56946679001441] [0:25.931647527783198] [0:176.6726766953735] [0:71.896965686524794] [0:30.874751351016343] [0:41.539863753207818] [0:21.403332876135202] [0:20.04610712470685] [0:25.875781024792573] [0:20.141577050333421] [0:29.152348315324485] [0:35.572277089639272] [0:35.621443564943021] [0:62.039685525845478] [0:348.10849871790356] [0:30.329442460841626] [0:117.20857407467879] [0:69.961192881011982] [0:68.480516952383951] [0:41.778976959818571] [0:48.702909039062746] [0:65.207604538633973] [0:27.739157451218439] [0:52.899129516906164] [0:40.691638089927821] [0:40.581947776222087] [0:62.983425998009309] [0:217.43387018520485] [0:69.238399924954336] [0:77.379403545109554] [0:38.410146934457948] [0:27.580031596312249] [0:62.709291365221809] [0:50.495068058886751] [0:35.815964852727852] [0:32.866583565761829] [0:32.28659589583269] [0:33.083441894374275] [0:60.084828249011437] [0:38.337311621619264] [0:45.268662836291121] [0:49.566773498842217] [0:109.5838723313199] [0:29.25030967504906] [0:31.774172067669621] [0:23.848455484251751] [0:46.412653082615272] [0:49.279456458332184] [0:22.289290041007934] [0:42.960615086221971] [0:20.745318022226559] [0:45.599705658682808] [0:35.594365289775155] [0:88.136698135493702] [0:76.937672718576962] [0:69.45317798144049] [0:30.448849386745394] [0:49.000529147135936] [0:30.984638212631573] [0:66.169979156036689] [0:45.539825240236581] [0:56.390026448679905] [0:36.792876872445269] [0:31.151779939649373] [0:30.24142132235486] [0:30.662974278680529] [0:36.408015167084159] [0:21.196835414513973] [0:41.953192611563729] [0:36.463404296439371] [0:96.32611809671306] [0:28.293743253480443] [0:37.836878979121721] [0:26.623439694647391] [0:21.247469002001665] [0:26.854503910423048] [0:37.453834162114177] [0:33.652019973832381] [0:16.258059496411668] [0:20.905797997384258] [0:26.754166095169005] [0:42.09734065558515] [0:32.111586780394767] [0:16.153519302421167] [0:37.596305474592263] [0:32.185000499419594] [0:43.702706219282362] [0:20.629448951967795] [0:52.507418438715746] [0:26.787388808762348] [0:21.538025736561554] [0:19.617125003292458] [0:21.971662930590291] [0:21.146834763457047] [0:33.433935061511903] [0:78.727537904893936] [0:36.58514649542245] [0:21.403332876135202] [0:16.258059496411668] [0:20.04610712470685] [0:44.066405211896416] [0:66.67114440571568] [0:33.815451521811312] [0:316.75524071529884] [0:197.0134537403907] [0:44.004628843145142] [0:159.85733650303393] [0:54.087820625113274] [0:72.520853506818071] [0:87.694867181995264] [0:50.530705782681245] [0:108.93429728476269] [0:57.529925390074652] [0:32.307038604842333] [0:86.712161003343226] [0:165.42771278665276] [0:49.343910522944853] [0:27.502893026965715] [0:59.085873084754176] [0:61.210257525470723] [0:195.97281394975161] [0:93.858587875131207] [0:60.776536147003327] [0:68.130983645483965] [0:38.891500903334148] [0:59.137657595952163] [0:65.846950632923267] [0:37.341355859664304] [0:67.741575556722225] [0:143.57850606411134] [0:391.20349265250763] [0:54.702732558978127] [0:82.123239410113186] [0:51.002548967853969] [0:49.299875348642743] [0:45.562273771094546] [0:89.397898938542795] [0:50.970493512997649] [0:51.91963323274895] [0:174.81082487712945] [0:114.86280485128907] [0:74.727451882388053] [0:81.811208886582705] [0:30.069160687060275] [0:174.8624823512279] [0:76.728664183523833] [0:56.101075195037872] [0:82.630869120717975] [0:71.811037602071735] [0:33.190986893383482] [0:26.341233140122633] [0:60.718144301370238] [0:40.553814541417395] [0:138.2755750793381] [0:101.29204861526681] [0:49.232459303080319] [0:27.314191387051476] [0:44.711916501897562] [0:70.68931489644622] [0:45.414121388956644] [0:296.56599906347037] [0:150.87250020442391] [0:45.637391693893257] [0:52.361003515368679] [0:213.20064278914344] [0:40.699653149737287] [0:40.270947773052256] [0:166.58022608310463] [0:56.059391210509688] [0:76.878954874737815] [0:177.12032201507668] [0:137.13343423109103] [0:22.423756484203874] [0:328.63528520740624] [0:34.115890972347032] [0:82.450836771835824] [0:76.773853707559226] [0:34.171705328320911] [0:68.0115922806757] [0:284.42216636920358] [0:194.04953480462575] [0:50.982489568460771] [0:73.152884881333648] [0:123.51950302433193] [0:121.87906215199867] [0:42.244133764930723] [0:48.157498971304207] [0:27.987142156915297] [0:80.362166426287047] [0:75.861676315041095] [0:162.01993447972799] [0:56.407252371363839] [0:47.528149644826911] [0:21.93349422297122] [0:42.738032251651866] [0:27.659155744486235] [0:65.088671571810892] [0:32.185000499419594] [0:31.98696272061057] [0:36.072241087678172] [0:42.000953947455756] [0:42.19644759931078] [0:27.619629846950669] [0:42.444144182574064] [0:48.710573984227175] [0:25.738786153851997] [0:42.132549618323068] [0:67.037365218075024] [0:30.040925340835798] [0:36.69895632045116] [0:28.551847563982591] [0:39.485076659954686] [0:22.232673181024545] [0:49.232459303080319] [0:15.954771145797563] [0:44.066405211896416] [0:24.354724152777614] [0:96.372073623410444] [0:54.791936165659948] [0:45.019233367441856] [0:55.773615350895753] [0:65.767127487457373] [0:33.518682609037512] [0:42.099782413721975] [0:25.152874880737034] [0:134.46546301239275] [0:130.62051765411903] [0:291.53066608583657] [0:16.112702346253826] [0:33.678994959044303] [0:27.541503257435259] [0:23.702459710790436] [0:36.383403425674011] [0:57.629428698606333] [0:42.000953947455756] [0:39.61007998175473] [0:35.360624533344634] [0:27.061429991237318] [0:53.311604534350955] [0:50.766527134227459] [0:146.88996879839436] [0:34.517955234044791] [0:33.439882527365079] [0:110.67154719799569] [0:31.833108136930548] [0:53.442325350024483] [0:107.30508855452049] [0:26.754166095169005] [0:64.551337240703063] [0:15.209387067902064] [0:38.39717793283647] [0:41.401249639668116] [0:194.38944603411863] [0:69.328647979628585] [0:32.558823799436524] [0:27.861612551259917] [0:51.623384160165756] [0:29.360288663627518] [0:16.279411899718262] [0:43.477009099471687] [0:26.888402345349938] [0:26.016635409626051] [0:51.91963323274895] [0:37.152500264953773] [0:22.562900948545536] [0:19.338894268484818] [0:41.859768189982525] [0:66.599924772977332] [0:56.417848963034338] [0:38.558104560409362] [0:33.096496751574641] [0:28.24807092276815] [0:31.646177130251775] [0:101.16907083966008] [0:57.237221567073526] [0:49.574705863383471] [0:24.662672807796515] [0:19.772652153469288] [0:19.68550273672966] [0:15.459531894719216] [0:26.820833749516328] [0:30.695037766812568] [0:172.58977617022396] [0:52.328125478233659] [0:52.846832285215456] [0:37.272815572506346] [0:18.00657999566171] [0:28.420038021234813] [0:18.961967768632348] [0:15.077336411651743] [0:27.414122408329195] [0:20.836231026536783] [0:15.331853051462829] [0:19.034565042655061] [0:38.127561640380598] [0:20.219628307227751] [0:95.446410367679832] [0:37.643763283489918] [0:15.974063816788433] [0:20.634507612029214] [0:20.141577050333421] [0:46.000948751430542] [0:55.989982362800276] [0:29.079912827918868] [0:53.182570485991874] [0:47.038045494114584] [0:23.08495156974017] [0:57.003647585609151] [0:98.735413722462141] [0:19.98990011088425] [0:24.334274226519987] [0:47.654200807590939] [0:25.409267884712406] [0:30.097529534235949] [0:28.378550319089872] [0:27.828079637250905] [0:19.049243958210909] [0:18.890664632821949] [0:14.790101240776588] [0:38.504050237751997] [0:50.474717448171994] [0:23.125549340196212] [0:21.09745142016785] [0:18.644011164399394] [0:41.02115109253711] [0:38.366694928034633] [0:30.826065073259386] [0:52.238354238012136] [0:23.774924747303274] [0:27.02584740424599] [0:38.293185706350279] [0:45.995559154388488] [0:20.976596305781865] [0:27.41244870988049] [0:20.745318022226559] [0:10.042011050262513] [0:20.678464098331595] [0:35.594365289775155] [0:52.140618696108078] [0:97.800873163126909] [0:27.659155744486235] [0:24.987375138605312] [0:269.92759140052931] [0:38.967558644444182] [0:25.501274483926984] [0:71.751412773383123] [0:24.921029744559196] [0:50.061020854740718] [0:20.859285845403782] [0:89.126925035233484] [0:78.994962398250266] [0:37.838067092119829] [0:23.405688497544524] [0:35.195243966906872] [0:27.769920862016946] [0:20.836231026536783] [0:31.417332121726432] [0:21.000476973727878] [0:22.166094301145684] [0:15.048764767117975] [0:47.359508237533291] [0:20.484355934752955] [0:27.847591849569163] [0:71.210931059150624] [0:63.174542668208986] [0:45.945121940515627] [0:15.804739884073578] [0:24.783386749421108] [0:42.546056388793502] [0:20.442470735283774] [0:21.971662930590291] [0:16.092500249709797] [0:30.2706184602619] [0:20.813308327700842] [0:20.103115215535656] [0:32.516118992823337] [0:27.468917309708829] [0:43.801693607735977] [0:65.554059328923543] [0:10.796599512545448] [0:36.798336480439616] [0:53.619625249134764] [0:15.395013279056327] [0:61.759751512165963] [0:29.25030967504906] [0:21.122066882465361] [0:22.952303663130344] [0:20.859285845403782] [0:39.503045618528425] [0:21.705882532957681] [0:35.658531294465575] [0:26.074107306754726] [0:35.381539577937197] [0:23.578119377900371] [0:42.026952016173041] [0:47.30512740742963] [0:15.363266951064716] [0:66.714539626273506] [0:14.074077760741327] [0:15.768375802476545] [0:19.45112607966545] [0:10.824571996494928] [0:35.113784456608606] [0:21.705882532957681] [0:32.185000499419594] [0:30.24142132235486] [0:41.235433689593627] [0:43.371332738581543] [0:28.086826197053426] [0:44.578580082015868] [0:18.792928531472818] [0:62.577857536211347] [0:35.921697651131431] [0:54.823022431494024] [0:28.210118206417754] [0:58.744247586724256] [0:19.45112607966545] [0:15.993481360305285] [0:42.273917378057888] [0:39.868943944477081] [0:26.464696203074489] [0:35.635788211855569] [0:144.30741073834849] [0:15.823088565125888] [0:21.677412661882226] [0:25.688915012133183] [0:19.43489887688299] [0:15.679348498038195] [0:23.422666442550213] [0:26.024566773524768] [0:43.816089419457775] [0:16.279411899718262] [0:20.656425475087715] [0:25.988145304052864] [0:52.682466280245265] [0:33.584570588298362] [0:26.250596217159845] [0:49.706671034920518] [0:25.903636250039849] [0:15.379098122367246] [0:37.709673539620731] [0:25.216171209703827] [0:24.500970528149026] [0:86.443458560882519] [0:15.974063816788433] [0:16.013025403368868] [0:50.84100851839429] [0:39.344948705067331] [0:210.86112777594747] [0:115.51215071325599] [0:28.66924794568865] [0:75.328568647622347] [0:48.053344823420012] [0:22.769912620118291] [0:43.100096086013224] [0:46.576405844626628] [0:43.517600399148876] [0:21.48687663923117] [0:25.279529770993843] [0:27.096765827352783] [0:23.595694088437593] [0:21.350700537825158] [0:45.125801897091073] [0:20.505464163156329] [0:18.34947816022558] [0:30.859731988264951] [0:40.189386315932438] [0:27.37786852159342] [0:15.048764767117975] [0:62.23799194268161] [0:34.66543926053194] [0:50.922201899658461] [0:16.182191263685763] [0:44.314815878170378] [0:14.189275159544936] [0:21.239078184488875] [0:31.078818976034782] [0:16.194899268818173] [0:19.934471972238541] [0:19.755069707577135] [0:31.55128782668001] [0:15.935601751501249] [0:19.45570346479521] [0:17.000063431229506] [0:70.436295318584726] [0:10.274008877988276] [0:21.298751755717912] [0:26.074107306754726] [0:16.0524996571014] [0:39.851643770007982] [0:25.399230125770949] [0:21.376930140009794] [0:35.488569825104811] [0:20.008548163307491] [0:46.583427202855624] [0:154.22278577129273] [0:16.236857994742394] [0:34.815647169202968] [0:50.225591817600112] [0:38.667481785730935] [0:43.354825323764452] [0:23.960819763512042] [0:29.738802023962112] [0:31.815470122559944] [0:10.37265901111328] [0:29.765647706331634] [0:19.093606704987543] [0:39.932717732156597] [0:48.668548453039975] [0:21.881093023591252] [0:36.792876872445269] [0:75.44894323695155] [0:21.024501069968725] [0:36.463404296439371] [0:43.526874965532159] [0:93.197092377259537] [0:20.612709192958956] [0:10.418115513268392] [0:29.957007888987356] [0:35.847622885817671] [0:10.274008877988276] [0:19.549896530026935] [0:15.935601751501249] [0:42.45278310764747] [0:17.690769788968598] [0:41.182057846163197] [0:15.661855737105814] [0:16.194899268818173] [0:44.578580082015868] [0:82.741241878936606] [0:21.138732914086184] [0:40.360824613682531] [0:33.33557220285784] [0:27.82165611328665] [0:26.721162675012241] [0:15.542181750023911] [0:20.299232924496931] [0:27.401416398692234] [0:15.427099146406569] [0:24.392964480622918] [0:10.406654163850421] [0:46.378595684157652] [0:902.0232490776192] [0:67.188526462737656] [0:49.363380763928262] [0:16.344396390061799] [0:30.31169495148611] [0:28.914221825721029] [0:20.905797997384258] [0:19.68390986957623] [0:27.847591849569163] [0:33.655245873229184] [0:24.542637708522825] [0:24.885137314493914] [0:56.114595791100804] [0:57.47915462504313] [0:31.646177130251775] [0:55.609060656491039] [0:27.217383471391248] [0:158.18919716750165] [0:38.667481785730935] [0:25.605444918441194] [0:24.173617835606024] [0:30.663706102925659] [0:19.005367832728613] [0:42.347150128520767] [0:40.504773196584026] [0:38.634903222840364] [0:57.817377942413991] [0:15.768375802476545] [0:27.204296853457599] [0:21.146834763457047] [0:27.946116230843131] [0:27.277290850563361] [0:21.09745142016785] [0:25.765886491198696] [0:21.272154380082466] [0:15.106182787750065] [0:21.130378251306841] [0:221.02556434352257] [0:32.431610553532906] [0:30.429627945494389] [0:26.721162675012241] [0:63.651444974317798] [0:136.55781391112444] [0:276.03162665286561] [0:31.871203503002498] [0:51.679873643048495] [0:24.987375138605312] [0:30.984638212631573] [0:29.116661208264674] [0:46.727669909474059] [0:26.688375672281449] [0:40.217235461973097] [0:41.953192611563729] [0:30.8678185397326] [0:21.456666999613063] [0:26.591285242995937] [0:19.659813437396487] [0:23.904321987242376] [0:32.013814229143293] [0:19.549896530026935] [0:43.766485087407432] [0:14.725582625113695] [0:15.363266951064716] [0:23.310034226349156] [0:16.174137940284453] [0:20.359993586472829] [0:15.300764690356189] [0:49.746441453328273] [0:45.006165231577882] [0:16.606027819055441] [0:35.053288404514291] [0:21.024501069968725] [0:61.390075533625136] [0:176.55381086299136] [0:22.755009479427599] [0:9.9129340079873707] [0:20.836231026536783] [0:19.328045258376527] [0:24.030509713849554] [0:49.715333724511204] [0:28.251785040534621] [0:36.289844628521664] [0:15.78650274584443] [0:18.582705911294987] [0:48.4605579072635] [0:42.806665752270405] [0:39.166739057417999] [0:31.500715460591817] [0:49.898536364217286] [0:28.127642680989943] [0:21.350700537825158] [0:37.753110541500149] [0:24.49268976803916] [0:26.024566773524768] [0:15.395013279056327] [0:44.253671420547221] [0:36.148744581403506] [0:20.279182757202751] [0:37.052326066956262] [0:55.666743194385717] [0:30.097529534235949] [0:17.407823584601484] [0:46.672151763065102] [0:31.358696996076389] [0:18.436845127885775] [0:28.084037766069834] [0:53.574777617524695] [0:45.886202115017952] [0:46.610027910998483] [0:42.904557627188083] [0:81.615603609451369] [0:58.472593520959599] [0:92.250000765070141] [0:25.579198139010476] [0:22.289290041007934] [0:33.33557220285784] [0:21.376930140009794] [0:21.146834763457047] [0:10.476428681851303] [0:107.01666438067602] [0:49.733334239444964] [0:41.511337580356312] [0:16.215805276766453] [0:32.348275880568906] [0:39.733827494048462] [0:19.720134987702117] [0:49.12791940491023] [0:65.643279070773758] [0:31.471966864613162] [0:15.12071066117743] [0:77.498119511598134] [0:109.99278839391518] [0:18.121530434731138] [0:78.202706039432229] [0:77.674948954939879] [0:40.288219596206581] [0:105.29333836120249] [0:32.225404692507652] [0:25.840320174435021] [0:16.0524996571014] [0:20.103115215535656] [0:162.10349742770501] [0:15.679348498038195] [0:39.616101229154438] [0:21.196835414513973] [0:15.254727981332209] [0:14.516051905011905] [0:31.084363500047822] [0:27.288180752978175] [0:51.090886562576223] [0:54.77763927626971] [0:41.905714727405211] [0:45.362131983532294] [0:33.190986893383482] [0:17.407823584601484] [0:33.696430452439479] [0:25.017806036138502] [0:21.845882469510212] [0:16.215805276766453] [0:54.554581701126722] [0:25.253888553357076] [0:96.618767224117406] [0:54.77763927626971] [0:42.813383289364175] [0:45.300456102663219] [0:39.37100547345932] [0:32.601834736308192] [0:23.904321987242376] [0:30.539990379709245] [0:44.512736088923745] [0:25.081274611863293] [0:28.508051749092921] [0:16.215805276766453] [0:82.517181723341764] [0:27.698996592732115] [0:16.426485486110728] [0:21.911055710507885] [0:34.835183198447382] [0:22.002314421572571] [0:32.389798537636345] [0:15.993481360305285] [0:37.138626159752306] [0:36.304306538896476] [0:56.671993898465843] [0:53.982997562727242] [0:79.73397909941545] [0:27.464578663237866] [0:59.639404251971669] [0:40.773727915051047] [0:79.555031579391752] [0:27.682578690769574] [0:21.759779480751856] [0:33.861783786923361] [0:13.856160209821413] [0:31.712678260779491] [0:23.201691300585338] [0:14.243136570394723] [0:25.153474714457783] [0:15.831752695530231] [0:18.462161668092364] [0:10.741801564169219] [0:15.696943856395389] [0:21.73455649087213] [0:16.777307807787153] [0:26.984180614554923] [0:20.745318022226559] [0:47.251073190887723] [0:20.160947548236575] [0:15.459531894719216] [0:29.287749154378691] [0:31.98696272061057] [0:50.353942625833554] [0:31.358696996076389] [0:167.06905866864099] [0:25.685022194970692] [0:55.1227381236518] [0:74.11930780550037] [0:54.336391227180329] [0:19.73756420917794] [0:21.510721876279952] [0:22.033202605948208] [0:37.007738995842239] [0:29.375054293063499] [0:36.639033623233104] [0:37.788098293909073] [0:35.759983079528183] [0:29.632604561365703] [0:54.791404229853498] [0:98.377685610761887] [0:21.222072091287032] [0:42.416989897392433] [0:34.787996311292353] [0:60.40581922711543] [0:53.636529425668733] [0:59.022049371941414] [0:18.513280574677964] [0:19.934471972238541] [0:24.395876648460192] [0:32.960415880623728] [0:28.486273140789447] [0:19.370640466867762] [0:15.475880709021911] [0:46.579113307509736] [0:27.270402962194236] [0:27.987142156915297] [0:43.09544906876252] [0:50.982489568460771] [0:60.810796819820631] [0:10.714955523504939] [0:74.277252319504612] [0:15.897626560885481] [0:42.583064188117632] [0:33.145273286550477] [0:21.510721876279952] [0:61.571712745213659] [0:44.46534636204909] [0:23.077702085115455] [0:21.556645213100502] [0:86.00076101428634] [0:60.338422465885884] [0:86.348519598478134] [0:66.381973786766963] [0:52.805167206163404] [0:22.191325960974751] [0:23.848455484251751] [0:18.44948336904725] [0:78.020250556402928] [0:44.19140775512107] [0:21.298751755717912] [0:20.929258475193851] [0:25.903636250039849] [0:29.375054293063499] [0:34.917509916157854] [0:30.388848886737897] [0:41.683866825325794] [0:39.302335523928186] [0:47.580378217778353] [0:73.608078615017575] [0:64.863221107065812] [0:48.584697806454514] [0:37.981697521052595] [0:30.539990379709245] [0:30.126033150787539] [0:82.624509772305785] [0:20.700624819834058] [0:26.402583603081702] [0:20.678464098331595] [0:14.232286648984159] [0:39.241573847356783] [0:34.885416985489101] [0:30.097529534235949] [0:29.476751642946141] [0:27.698996592732115] [0:31.536751604953089] [0:28.072614323711804] [0:27.619629846950669] [0:26.647122179269886] [0:68.399558488024212] [0:65.290312448298238] [0:27.388819638134855] [0:14.882823853165817] [0:53.376751344562898] [0:22.159197274185694] [0:16.013025403368868] [0:21.621073702355268] [0:58.037515028882986] [0:19.87980141732389] [0:15.55898851666992] [0:21.195314228940898] [0:28.029695605254844] [0:28.573865937316363] [0:30.76816206142858] [0:15.508848073748696] [0:20.678464098331595] [0:63.515270887378769] [0:26.045288783170978] [0:20.299232924496931] [0:43.411765065915361] [0:27.277290850563361] [0:31.948127633576867] [0:66.848871263723453] [0:19.533264489432277] [0:24.095184854767524] [0:30.359072150685119] [0:21.273028194396751] [0:30.984638212631573] [0:24.521406254115572] [0:17.044360672425881] [0:26.615207210404286] [0:14.950853979178905] [0:16.112702346253826] [0:15.459531894719216] [0:88.849641488883094] [0:16.153519302421167] [0:28.421407644164152] [0:17.2453161704804] [0:32.307038604842333] [0:32.516118992823337] [0:19.533224397475035] [0:15.492319106315787] [0:59.562032264230908] [0:19.183836094683841] [0:36.383403425674011] [0:40.133688473333621] [0:48.584697806454514] [0:31.500715460591817] [0:41.235433689593627] [0:28.707700482402149] [0:145.86368675280801] [0:36.626202331589241] [0:44.128662335432857] [0:53.709007820846097] [0:37.781329265643897] [0:81.286390369336502] [0:26.045288783170978] [0:19.19907420835051] [0:68.022146069090468] [0:73.670346147274017] [0:38.948644077808275] [0:16.0524996571014] [0:20.905797997384258] [0:89.459106377957511] [0:36.625223079611771] [0:55.160108964297798] [0:29.796520014422324] [0:26.132247496730322] [0:20.678325196491009] [0:16.174137940284453] [0:19.168655810809632] [0:28.127642680989943] [0:28.914221825721029] [0:18.539087115803916] [0:118.21062262330024] [0:26.220745382227332] [0:30.480785298641457] [0:10.464629237596926] [0:27.026342127944083] [0:32.601834736308192] [0:28.399940716076848] [0:20.505464163156329] [0:15.916554068465274] [0:46.49313085339999] [0:33.286988941462127] [0:62.521685043310363] [0:30.344297721992834] [0:33.238795911278544] [0:57.415400964804299] [0:41.573915661188252] [0:32.242431711479838] [0:13.661947572070973] [0:10.306354596479478] [0:28.595965409814141] [0:18.474880279761884] [0:49.93048341219319] [0:43.949845101222621] [0:34.726588990720245] [0:34.212318927547138] [0:38.722818042280728] [0:108.03365474576559] [0:53.05518022821758] [0:54.607755344484985] [0:34.853289282225568] [0:56.386561342637002] [0:15.627173269902588] [0:26.496044268142466] [0:41.672462053073566] [0:25.715364872833671] [0:41.312850950175431] [0:23.727924592088208] [0:14.210703822082076] [0:21.294327365421797] [0:31.500715460591817] [0:10.099986124009016] [0:16.366374510338019] [0:49.120212415281422] [0:31.429286045553908] [0:24.23326068993239] [0:22.389713725532239] [0:15.575889969824686] [0:46.046825137474073] [0:23.857175654736736] [0:27.078282106350091] [0:33.33557220285784] [0:18.792928531472818] [0:15.149979186013525] [0:28.029695605254844] [0:27.502893026965715] [0:80.681200178048869] [0:26.52759011410879] [0:25.324040738948245] [0:28.471290828298365] [0:20.745318022226559] [0:27.388819638134855] [0:27.132353166197099] [0:32.866583565761829] [0:29.275051978152227] [0:21.851277920939868] [0:22.983359663593539] [0:28.693117404997238] [0:72.346788492656003] [0:15.750357730295908] [0:10.350312409917029] [0:20.813308327700842] [0:56.859818287245048] [0:23.578119377900371] [0:30.245186137617125] [0:34.63304639603507] [0:43.109237203282646] [0:30.758196244734492] [0:46.089800853194149] [0:32.688792780123599] [0:38.504050237751997] [0:10.675350268912579] [0:20.698010261287706] [0:10.867278245436065] [0:14.136363735086615] [0:72.452186869419208] [0:17.659478886243761] [0:19.790312226305755] [0:21.154719921548025] [0:15.897626560885481] [0:21.141142518112346] [0:20.929258475193851] [0:150.93449288905984] [0:74.615122012868227] [0:17.883836752847934] [0:35.513771752537565] [0:13.875329604117727] [0:18.251912347728947] [0:20.745318022226559] [0:23.109549326542862] [0:24.435718890459071] [0:10.573417381728524] [0:14.445460412781323] [0:21.593199025090897] [0:72.02809005852302] [0:52.993927045521346] [0:16.322578112074559] [0:26.230959206569683] [0:63.343960943443122] [0:18.144922314260832] [0:39.362266492398319] [0:124.47190813335936] [0:50.453452089458715] [0:21.072986512098105] [0:42.960615086221971] [0:61.212200921158342] [0:29.225668983333136] [0:32.431610553532906] [0:43.526874965532159] [0:47.404919421580871] [0:24.209000566254204] [0:135.91147826048353] [0:45.562273771094546] [0:91.274783387786513] [0:80.681200178048869] [0:33.384552066692805] [0:31.795253121770962] [0:51.263660407890825] [0:71.407904524418441] [0:32.511695677274403] [0:38.558104560409362] [0:71.215682851973611] [0:30.726533902129432] [0:42.806665752270405] [0:58.153795599506878] [0:21.196835414513973] [0:44.985447419883798] [0:42.806665752270405] [0:16.344396390061799] [0:27.619629846950669] [0:72.938003812494728] [0:36.431860192189262] [0:34.758049717835121] [0:67.582975289450758] [0:50.846527660982666] [0:35.629988776327451] [0:42.244133764930723] [0:104.18115513268391] [0:27.487294046892103] [0:31.871203503002498] [0:42.649283627480763] [0:29.597599525357289] [0:48.515016363487803] [0:29.221837356112349] [0:172.24814894638453] [0:50.150902592267855] [0:78.841879012382719] [0:72.136850749909598] [0:20.359993586472829] [0:66.146208976417967] [0:21.705882532957681] [0:20.299232924496931] [0:16.766968688211584] [0:26.371814275209815] [0:60.982411201557298] [0:56.799881432153697] [0:21.483603128338437] [0:56.173652394106853] [0:45.821352925268826] [0:35.180451627187395] [0:21.510721876279952] [0:36.709043535118262] [0:67.037365218075024] [0:44.382651921949503] [0:23.613330791027437] [0:37.935472158293898] [0:38.834820431705815] [0:10.728333499806531] [0:100.43767042610398] [0:46.97042651050733] [0:404.39256614455502] [0:89.63507094164035] [0:26.688375672281449] [0:34.637959234284807] [0:222.42195647888792] [0:27.659665413354791] [0:25.501274483926984] [0:24.944489750502704] [0:35.959031072958965] [0:95.272906331068157] [0:44.811371934290015] [0:156.36479905967062] [0:40.92671702241676] [0:36.58514649542245] [0:29.275051978152227] [0:21.403332876135202] [0:63.666216273861096] [0:20.429231544763589] [0:23.948316647700587] [0:16.258059496411668] [0:32.558823799436524] [0:42.881798607531337] [0:36.034300615392794] [0:16.0524996571014] [0:51.257557992481367] [0:18.245938581536592] [0:18.120269347686886] [0:18.827625818296941] [0:17.352040563600447] [0:15.040449722210552] [0:14.053599865530128] [0:23.191938059598606] [0:33.22873042183658] [0:24.816557848710357] [0:16.630051915296285] [0:9.8775348537885677] [0:28.893398144389366] [0:81.358549233771782] [0:61.580053116225308] [0:164.62619003496783] [0:52.519622064259217] [0:24.606878420912075] [0:15.916554068465274] [0:20.836231026536783] [0:21.09745142016785] [0:70.637308595334417] [0:27.314191387051476] [0:129.37890512396285] [0:39.006257571763882] [0:43.585057040164799] [0:32.558823799436524] [0:37.227799340194316] [0:21.639241722268014] [0:44.711916501897562] [0:21.705882532957681] [0:15.935601751501249] [0:14.869401011981056] [0:16.215805276766453] [0:16.215805276766453] [0:41.672462053073566] [0:11.999777608494696] [0:39.763102020892809] [0:27.868636155402559] [0:50.162549223726586] [0:16.215805276766453] [0:107.17216354954621] [0:77.340541824677643] [0:77.646126772428389] [0:48.668548453039975] [0:26.792878334684154] [0:38.948644077808275] [0:50.89998396618207] [0:111.080165097194] [0:17.466792711550298] [0:57.136888693342215] [0:15.459531894719216] [0:28.314832906125112] [0:38.677788536969636] [0:50.150902592267855] [0:51.257557992481367] [0:33.530729386437301] [0:29.578773880022805] [0:96.078152420213215] [0:44.568113882798741] [0:30.822026633964828] [0:33.63563472630581] [0:20.929258475193851] [0:33.571713165696721] [0:22.527658429816917] [0:18.73813315404017] [0:44.019663167250329] [0:43.512512104090838] [0:30.601529380712378] [0:26.473654118303365] [0:21.456666999613063] [0:32.866583565761829] [0:20.359993586472829] [0:19.73756420917794] [0:32.645156224149119] [0:38.558104560409362] [0:28.490269563652387] [0:34.154227307844266] [0:66.267383973945442] [0:164.72823138465279] [0:21.73455649087213] [0:23.703248650846355] [0:19.354735873349206] [0:16.441781871864343] [0:56.83159257398615] [0:39.101989165989224] [0:48.478184878479965] [0:19.583369528708999] [0:26.754166095169005] [0:31.125742453434363] [0:58.489167099938086] [0:32.348275880568906] [0:14.712843752469343] [0:15.300764690356189] [0:41.601355410934545] [0:9.6615575776603748] [0:35.349951434031553] [0:38.398148416701019] [0:27.204296853457599] [0:31.429286045553908] [0:15.347518883406284] [0:33.736617749919617] [0:35.211826968301551] [0:28.046285502276149] [0:21.821129943710929] [0:45.629780869322367] [0:30.984638212631573] [0:33.533937376423168] [0:35.996564674948665] [0:31.429286045553908] [0:26.559336252502082] [0:18.630744153895421] [0:45.902294071068567] [0:38.593618746778205] [0:77.379403545109554] [0:65.180079792942493] [0:38.948644077808275] [0:59.096826624548783] [0:15.179536075342559] [0:43.46911298174426] [0:63.366200647396084] [0:44.578580082015868] [0:99.761157553813817] [0:60.937792504010659] [0:124.81957341607267] [0:29.846913056978178] [0:52.755549260380562] [0:34.789652480316803] [0:27.164828390851955] [0:62.478516909118156] [0:49.170746022830244] [0:45.713221645529607] [0:40.168044201050051] [0:77.935117288888364] [0:30.822026633964828] [0:15.860126072592784] [0:20.526684372075103] [0:25.903636250039849] [0:29.738802023962112] [0:42.546056388793502] [0:44.568113882798741] [0:26.991498781363621] [0:44.138531257408033] [0:45.528885752548724] [0:16.366374510338019] [0:16.41081976769344] [0:30.695037766812568] [0:39.058510820562233] [0:10.23167925560419] [0:23.282574224184685] [0:23.989272438122988] [0:56.407252371363839] [0:137.25700346263841] [0:16.0524996571014] [0:27.464578663237866] [0:19.720134987702117] [0:32.688792780123599] [0:35.349951434031553] [0:29.008341402727225] [0:24.095184854767524] [0:31.107000809039349] [0:19.675864815547726] [0:15.732447229336397] [0:23.61103777865727] [0:15.841550161849021] [0:15.78650274584443] [0:48.417036838854806] [0:136.19957988466831] [0:61.801052720104437] [0:34.268909142188427] [0:29.128105858102455] [0:26.045288783170978] [0:20.929258475193851] [0:26.341233140122633] [0:33.584570588298362] [0:22.002314421572571] [0:30.448849386745394] [0:30.995592621898055] [0:31.536751604953089] [0:52.206185790352713] [0:31.219962491551264] [0:34.196346286428707] [0:37.006960836049835] [0:33.33557220285784] [0:36.87369025577155] [0:41.010928326312658] [0:53.329156194225675] [0:36.58514649542245] [0:69.727055032932924] [0:101.59692050308379] [0:44.78599800194494] [0:24.722976450001603] [0:28.66924794568865] [0:20.319384100616759] [0:85.524155247278756] [0:29.984850166326375] [0:57.237221567073526] [0:201.5708718434324] [0:189.97228838660041] [0:34.948909641472326] [0:136.30950187879094] [0:48.253687290536689] [0:17.786138544819636] [0:15.696943856395389] [0:21.974843765932331] [0:17.398079365409959] [0:23.848182561535744] [0:26.615207210404286] [0:19.516701318768153] [0:34.124435689881246] [0:18.276081605552797] [0:15.750357730295908] [0:13.347657604726736] [0:25.317868559586465] [0:50.200798439030919] [0:34.342332940244113] [0:39.066528978864554] [0:47.997685520876274] [0:45.48785462979604] [0:16.032697605007346] [0:15.592887182431717] [0:71.404019324706468] [0:27.464578663237866] [0:16.153519302421167] [0:18.386687730874833] [0:42.839319484036388] [0:42.3693628939576] [0:42.377677560801928] [0:60.327376158162977] [0:37.739655193997052] [0:33.488225193056742] [0:20.027283560557198] [0:35.701726428737942] [0:21.024501069968725] [0:32.957494395885433] [0:41.68131619698292] [0:23.38876800762332] [0:15.347518883406284] [0:53.119844434747272] [0:36.423289573476474] [0:47.398888462936213] [0:39.035247521587635] [0:54.938983453397782] [0:55.974284313830594] [0:47.922191450365304] [0:26.464696203074489] [0:89.812866649191562] [0:61.830094355507434] [0:33.433935061511903] [0:52.264761540003683] [0:87.988109917267181] [0:32.688792780123599] [0:63.05858207199222] [0:40.518465182317193] [0:22.127324595588988] [0:52.328125478233659] [0:100.13978706004927] [0:22.179339342003569] [0:21.941244533049414] [0:169.56498464819893] [0:36.527957443773296] [0:61.378474852261476] [0:31.573005491688861] [0:19.354735873349206] [0:16.092500249709797] [0:15.508848073748696] [0:45.673274080118091] [0:67.105221792861499] [0:33.571713165696721] [0:27.277317300408555] [0:26.377697896451217] [0:20.359993586472829] [0:43.406420502322462] [0:15.300764690356189] [0:21.429911047009877] [0:15.860126072592784] [0:18.6975236681841] [0:10.769012868280777] [0:33.162768990742052] [0:33.003471632358853] [0:10.548725710083925] [0:17.680312266672317] [0:29.400317488281559] [0:46.445279538963433] [0:33.796157814093867] [0:27.580054482148899] [0:20.219628307227751] [0:19.87980141732389] [0:18.670677929832152] [0:222.27529834969519] [0:14.937123978096672] [0:23.508431838681464] [0:25.685022194970692] [0:16.366374510338019] [0:35.961775000091222] [0:67.943843491498839] [0:35.523657617869631] [0:26.402583603081702] [0:16.322578112074559] [0:58.851920763478397] [0:37.235042002714849] [0:18.919033546059914] [0:14.38787707101288] [0:24.056424970745933] [0:20.065019689490633] [0:40.760907978279825] [0:50.687231467088061] [0:58.714426479019188] [0:23.938121233182827] [0:14.480548532070895] [0:21.881093023591252] [0:31.239258454559078] [0:53.518687537200272] [0:20.976596305781865] [0:26.350572879304746] [0:38.250142720266389] [0:43.302421359265878] [0:16.194899268818173] [0:41.65577538660802] [0:20.591028923081598] [0:14.516051905011905] [0:15.063016575393769] [0:15.897626560885481] [0:16.112702346253826] [0:30.86727392278442] [0:33.757158079448622] [0:18.487639461234288] [0:19.923032104823594] [0:22.214576028397897] [0:24.198352826103992] [0:21.146834763457047] [0:25.468022897514746] [0:24.173617835606024] [0:50.544890420986931] [0:23.190066364375753] [0:14.136363735086615] [0:127.1593655721332] [0:28.961097064141789] [0:28.357235909463668] [0:26.413168685694135] [0:12.558084447396279] [0:43.762186047182503] [0:22.410045121992844] [0:28.219011272915985] [0:21.298751755717912] [0:50.017395067770373] [0:16.258059496411668] [0:26.776507246764925] [0:38.042575293165967] [0:20.200881360597648] [0:13.762108620169185] [0:29.018757514441493] [0:26.647122179269886] [0:33.841011874973738] [0:23.595694088437593] [0:32.582776435272628] [0:20.359993586472829] [0:13.661947572070973] [0:28.468984910796465] [0:20.992511616786341] [0:46.853426752426685] [0:70.544118232112467] [0:73.088660106493791] [0:28.086826197053426] [0:32.788699008212106] [0:30.31169495148611] [0:52.522291537553883] [0:14.275923781991295] [0:17.995264570859803] [0:15.55898851666992] [0:10.149616462248465] [0:26.042972775997768] [0:20.299232924496931] [0:21.196835414513973] [0:15.55898851666992] [0:30.547698508919314] [0:26.454306048206437] [0:22.382344220114767] [0:23.561134438394433] [0:20.044791250853692] [0:55.74383092668608] [0:40.24232621722394] [0:42.913333999226126] [0:26.799689701617385] [0:29.173227172642239] [0:35.17387741324071] [0:14.297982704907071] [0:15.935601751501249] [0:17.618134848921116] [0:61.193411531742967] [0:41.860281491320926] [0:30.904088050926582] [0:51.920374158002566] [0:21.852214830223847] [0:49.000710552315006] [0:16.215805276766453] [0:27.869011230447537] [0:31.720252145185569] [0:37.026561149355928] [0:33.739085564912848] [0:20.484355934752955] [0:33.678994959044303] [0:37.052326066956262] [0:75.790420384437738] [0:37.788098293909073] [0:17.939162669441785] [0:51.911044330305877] [0:70.026376139851891] [0:46.643305811925231] [0:31.537340247477388] [0:26.427202273381674] [0:21.403332876135202] [0:32.601834736308192] [0:15.974063816788433] [0:45.867072540952712] [0:29.669400469352681] [0:25.658355465093877] [0:46.881519809707761] [0:16.45593339978706] [0:21.298751755717912] [0:41.401249639668116] [0:84.380891683124318] [0:241.78516156242975] [0:107.30508855452049] [0:64.450809385015305] [0:89.289941009066865] [0:15.993481360305285] [0:53.376751344562898] [0:15.878817721844692] [0:354.5471563869711] [0:36.110388321051126] [0:49.343910522944853] [0:42.567825478634809] [0:19.889361943916875] [0:27.636370038411286] [0:50.257788038839138] [0:50.353942625833554] [0:60.591307166357574] [0:15.823088565125888] [0:22.033202605948208] [0:56.734937853648418] [0:57.415400964804299] [0:31.909542291595127] [0:31.757635443689384] [0:15.4432716923112] [0:16.45593339978706] [0:20.767853293099581] [0:27.164828390851955] [0:20.905797997384258] [0:34.510236228478703] [0:30.448849386745394] [0:21.196835414513973] [0:37.836878979121721] [0:26.045288783170978] [0:32.065395210014692] [0:20.008548163307491] [0:21.663158116619844] [0:21.792528520082399] [0:19.897758251515473] [0:49.367800199361184] [0:26.721162675012241] [0:25.631830203945412] [0:21.403332876135202] [0:16.174137940284453] [0:46.281297439219706] [0:60.718144301370238] [0:25.324004089106793] [0:18.518520177491585] [0:14.68752714653175] [0:39.259629131689216] [0:15.285340491854935] [0:16.396067088569851] [0:20.56181507047679] [0:14.264954848381963] [0:138.57411949220707] [0:18.44256935002171] [0:16.118075910582167] [0:20.745318022226559] [0:37.919294656490763] [0:89.377842131576017] [0:16.524901954461157] [0:20.745318022226559] [0:71.407904524418441] [0:15.696943856395389] [0:20.219628307227751] [0:13.93358386168903] [0:19.049243958210909] [0:19.897942037985452] [0:61.571712745213659] [0:25.125297107144835] [0:132.09222557898244] [0:31.909542291595127] [0:108.84879617862491] [0:81.463169211754888] [0:69.665815936560136] [0:85.65737265095828] [0:24.743676931109931] [0:88.949348519573874] [0:16.133041407209966] [0:26.591285242995937] [0:30.984638212631573] [0:53.913793134281505] [0:48.337337883774097] [0:32.688792780123599] [0:45.103741030590413] [0:77.340541824677643] [0:21.510721876279952] [0:134.77130352767145] [0:20.160947548236575] [0:24.737890282882194] [0:26.551882084332142] [0:34.323766499997518] [0:15.542181750023911] [0:21.072986512098105] [0:20.421691467775357] [0:16.366374510338019] [0:21.881093023591252] [0:22.725335801828528] [0:21.593199025090897] [0:23.73856095065787] [0:15.12071066117743] [0:19.43489887688299] [0:15.974063816788433] [0:28.344014594716029] [0:9.9764314046165303] [0:25.274535384034689] [0:14.637525989076114] [0:14.978503944493678] [0:26.942263644414517] [0:10.623734501000833] [0:18.6975236681841] [0:10.636514097198376] [0:15.331853051462829] [0:16.215805276766453] [0:16.344396390061799] [0:141.65952297429109] [0:53.11600201638533] [0:25.449991983091035] [0:59.748495912386687] [0:19.063976939876095] [0:67.52109855916828] [0:21.09745142016785] [0:10.782758626856301] [0:31.185774364863434] [0:16.032697605007346] [0:54.408593706915198] [0:47.143929068330863] [0:28.24807092276815] [0:55.318311488972469] [0:56.585828545363903] [0:39.851476228154638] [0:16.072433285257407] [0:59.38129731899997] [0:21.621073702355268] [0:20.219628307227751] [0:15.592887182431717] [0:31.757635443689384] [0:14.55198047815205] [0:14.909851062992917] [0:23.774924747303274] [0:21.072986512098105] [0:25.225515383551581] [0:25.299226792237597] [0:51.877292901752554] [0:33.898620817018582] [0:41.922457857429634] [0:36.226093434709604] [0:26.688375672281449] [0:44.847512968407749] [0:24.27342154841871] [0:21.971662930590291] [0:56.95284221386818] [0:79.02369942036789] [0:33.791487644725379] [0:18.13320927514448] [0:18.337151494075947] [0:39.18199901968142] [0:31.909542291595127] [0:74.918257308188231] [0:48.039076210106607] [0:25.848080122914496] [0:32.871637163872599] [0:13.229065088456828] [0:12.830409521313081] [0:40.96871186950591] [0:16.300917368154096] [0:21.73455649087213] [0:139.15135933631183] [0:161.849436565887] [0:44.318394548371387] [0:32.266082814419931] [0:19.808050614577219] [0:30.069160687060275] [0:22.860276525416765] [0:51.751562049585146] [0:90.907718194273471] [0:63.366200647396084] [0:64.751538152549386] [0:54.929157326475732] [0:21.82183268045069] [0:41.901689417981238] [0:27.388819638134855] [0:106.7535026891258] [0:27.542764395756411] [0:17.20801986297991] [0:13.591147826048353] [0:54.744742913421199] [0:22.327398612236795] [0:16.973718659818079] [0:21.294327365421797] [0:29.547438857065593] [0:27.235004629431103] [0:25.408290077112458] [0:27.541503257435259] [0:25.299226792237597] [0:30.269079595222781] [0:95.049300971094127] [0:40.626354050666222] [0:21.024501069968725] [0:57.412161083560051] [0:58.633349630746125] [0:31.358696996076389] [0:90.410369826186198] [0:36.034300615392794] [0:36.626202331589241] [0:31.683100323698042] [0:81.202651081234947] [0:53.641667499032657] [0:26.496044268142466] [0:27.132353166197099] [0:158.42914819844924] [0:21.621073702355268] [0:22.423953336802231] [0:35.87832533888357] [0:32.365597500082103] [0:20.008548163307491] [0:33.384552066692805] [0:42.599911074115269] [0:54.052684255888167] [0:26.956896567140753] [0:134.10416874758164] [0:27.5613690618259] [0:25.711831910677617] [0:20.259232591158597] [0:24.479211910886249] [0:107.1737795055913] [0:59.803415916715622] [0:48.710573984227175] [0:26.787388808762348] [0:41.581032486484581] [0:44.916182917938883] [0:27.655267691828662] [0:15.750357730295908] [0:70.637308595334417] [0:41.370047394468372] [0:231.51162049597153] [0:106.62634703570251] [0:79.020278830308541] [0:44.138531257408033] [0:31.796178415184745] [0:33.049803908922314] [0:20.905797997384258] [0:37.318123174045667] [0:21.677412661882226] [0:66.381973786766963] [0:23.832856038748325] [0:36.304306538896476] [0:58.857128180179238] [0:20.591028923081598] [0:33.190986893383482] [0:38.837474477469939] [0:16.300917368154096] [0:15.916554068465274] [0:46.28320143669491] [0:15.78650274584443] [0:45.904607326260688] [0:21.54494930133464] [0:20.141577050333421] [0:16.0524996571014] [0:18.919033546059914] [0:28.618610783536763] [0:37.318123174045667] [0:22.002314421572571] [0:43.021443752559904] [0:91.545297278528722] [0:48.506601593840166] [0:18.724550798035619] [0:24.585373011415122] [0:75.275010653180985] [0:31.464894458672795] [0:44.600301176797934] [0:14.882823853165817] [0:20.859285845403782] [0:14.764127052547245] [0:14.882823853165817] [0:18.361842930504274] [0:18.779159154708928] [0:31.144534411029049] [0:15.860126072592784] [0:16.388514832230886] [0:23.271901251696782] [0:37.026561149355928] [0:25.201184435295719] [0:43.943325861180583] [0:34.300370402995156] [0:32.026050806737736] [0:15.935601751501249] [0:52.430662262977812] [0:15.149979186013525] [0:10.37265901111328] [0:27.132353166197099] [0:26.496044268142466] [0:24.849751771654862] [0:19.617125003292458] [0:21.792528520082399] [0:49.790413260322239] [0:30.040925340835798] [0:53.951943196479704] [0:36.792876872445269] [0:35.113784456608606] [0:30.154672823303486] [0:24.671955261472426] [0:24.354724152777614] [0:21.456666999613063] [0:23.979795118354801] [0:21.565517253712603] [0:15.974063816788433] [0:32.225404692507652] [0:39.006257571763882] [0:47.262059849106109] [0:20.591028923081598] [0:47.197341688009196] [0:16.279411899718262] [0:20.46335851120838] [0:30.697883424982717] [0:41.286325860507553] [0:46.881519809707761] [0:48.039076210106607] [0:15.363266951064716] [0:50.766527134227459] [0:14.013058708029961] [0:19.897942037985452] [0:26.858813064137721] [0:15.542181750023911] [0:21.792528520082399] [0:18.792928531472818] [0:21.206219358672698] [0:20.027283560557198] [0:70.187181513507909] [0:15.269995189854622] [0:40.130039378981266] [0:23.793206303318826] [0:24.827178369882226] [0:43.250737767435474] [0:54.901193369574969] [0:25.988145304052864] [0:57.529925390074652] [0:15.935601751501249] [0:14.55198047815205] [0:13.953256063327508] [0:24.095184854767524] [0:23.405688497544524] [0:22.256368044461873] [0:16.133041407209966] [0:24.693837134471419] [0:21.997027479316795] [0:13.617502314715551] [0:42.836136427735532] [0:45.235993155048938] [0:31.178508416528981] [0:24.293623596103735] [0:10.769012868280777] [0:42.393670829027947] [0:14.68752714653175] [0:49.882157023082655] [0:13.78068453091295] [0:30.328421363267779] [0:10.636514097198376] [0:19.29174244547665] [0:20.882474316141085] [0:21.538025736561554] [0:20.533106857638408] [0:19.307398042761193] [0:35.841983407057711] [0:21.538025736561554] [0:39.999068939838409] [0:15.542181750023911] [0:20.882474316141085] [0:15.395013279056327] [0:35.529496239026514] [0:40.655799991046521] [0:14.178617954731834] [0:23.182949293872472] [0:20.940482010980759] [0:58.159825655837736] [0:10.573417381728524] [0:33.422381199964619] [0:14.649948367074208] [0:52.685815706243069] [0:56.448382023206534] [0:29.52825410509449] [0:20.279182757202751] [0:67.569177790537438] [0:17.152719443012536] [0:22.002314421572571] [0:54.423358622340828] [0:37.643763283489918] [0:22.002314421572571] [0:36.463404296439371] [0:63.400197250524151] [0:43.032796539679289] [0:19.45112607966545] [0:35.13570209701124] [0:50.150902592267855] [0:44.350378965063022] [0:21.705882532957681] [0:37.138626159752306] [0:37.223811315507284] [0:29.846913056978178] [0:31.720252145185569] [0:14.600564535911992] [0:19.772652153469288] [0:16.300917368154096] [0:33.238795911278544] [0:29.425687504938686] [0:40.93227112946726] [0:28.719682901777105] [0:37.006960836049835] [0:15.4432716923112] [0:26.942263644414517] [0:35.774323786746606] [0:25.952881332998057] [0:28.210118206417754] [0:28.618146581102099] [0:41.511337580356312] [0:52.264494993460644] [0:30.1629290218685] [0:27.739157451218439] [0:32.389798537636345] [0:17.701254722888095] [0:21.072986512098105] [0:19.98990011088425] [0:23.077702085115455] [0:17.217311388644468] [0:30.790026558112654] [0:23.867008381234427] [0:43.131034507425206] [0:15.459531894719216] [0:32.911866799574121] [0:15.542181750023911] [0:14.504170701363613] [0:15.679348498038195] [0:10.524335163896287] [0:10.649375877858956] [0:20.859285845403782] [0:28.775754142025761] [0:25.553088419104718] [0:33.164294302218849] [0:29.507662528012343] [0:15.077336411651743] [0:51.604951789384863] [0:21.122066882465361] [0:33.438791462129075] [0:82.166458914404572] [0:44.195829032844792] [0:38.741280933735524] [0:59.397265218046591] [0:10.406654163850421] [0:25.16596171168073] [0:21.510721876279952] [0:20.976596305781865] [0:16.45593339978706] [0:25.793134515036517] [0:39.301660053196521] [0:19.354735873349206] [0:21.763437482766079] [0:26.792878334684154] [0:32.065395210014692] [0:42.859822094019755] [0:47.156238755800743] [0:27.926281502036137] [0:33.521351534384991] [0:16.153519302421167] [0:27.277290850563361] [0:21.621073702355268] [0:24.293623596103735] [0:27.026342127944083] [0:20.952857363702606] [0:15.732447229336397] [0:14.764127052547245] [0:18.215930096094631] [0:30.299958372027049] [0:26.464696203074489] [0:27.464578663237866] [0:14.964647106924795] [0:30.24142132235486] [0:10.418115513268392] [0:14.842734169729315] [0:19.702781381307723] [0:10.88171874138304] [0:39.133196031337711] [0:15.661855737105814] [0:10.476428681851303] [0:15.459531894719216] [0:19.897942037985452] [0:21.73455649087213] [0:19.516701318768153] [0:25.738786153851997] [0:38.117108113459395] [0:17.775429033736771] [0:23.648791932574895] [0:15.627173269902588] [0:31.532996787128273] [0:26.43354345432131] [0:23.811554947763636] [0:15.878817721844692] [0:15.254727981332209] [0:41.858516950387703] [0:37.227799340194316] [0:17.883836752847934] [0:15.841550161849021] [0:14.504170701363613] [0:89.596853636021407] [0:37.156223631170747] [0:32.389798537636345] [0:37.314644649540185] [0:34.212318927547138] [0:34.419522215981175] [0:38.865416405550903] [0:35.147038675918793] [0:46.743809170460253] [0:43.411765065915361] [0:20.929258475193851] [0:53.040936800016951] [0:26.045288783170978] [0:32.266082814419931] [0:18.462161668092364] [0:10.295514461540799] [0:21.763437482766079] [0:20.905797997384258] [0:44.60820303594317] [0:32.065395210014692] [0:43.702706219282362] [0:43.477009099471687] [0:32.398241005686437] [0:38.39717793283647] [0:77.015020872319184] [0:71.451326183643317] [0:31.464894458672795] [0:36.674302988151894] [0:27.847591849569163] [0:24.31390759958181] [0:44.568113882798741] [0:18.604341417770012] [0:20.364235272045391] [0:23.774924747303274] [0:33.238795911278544] [0:19.29174244547665] [0:67.169141176596725] [0:71.053519110410377] [0:170.02898070168925] [0:56.407252371363839] [0:32.911866799574121] [0:37.042296355947641] [0:25.249965310022539] [0:30.951761418043823] [0:43.722003859766239] [0:25.424546635553682] [0:18.565061233046109] [0:16.112702346253826] [0:36.963617044314383] [0:64.77959707527269] [0:17.556909163790412] [0:15.679348498038195] [0:30.509455962664418] [0:30.984638212631573] [0:20.219628307227751] [0:17.427383525778254] [0:26.655802267175478] [0:30.724591036633221] [0:16.279411899718262] [0:14.950853979178905] [0:16.032697605007346] [0:26.830102493845462] [0:24.585373011415122] [0:26.220745382227332] [0:53.874777790573589] [0:34.63304639603507] [0:35.236269697842232] [0:43.892272909476027] [0:61.673242145598024] [0:38.098487916421817] [0:61.771859609374516] [0:15.034580343530138] [0:15.395013279056327] [0:20.299232924496931] [0:19.808050614577219] [0:17.388358825996793] [0:37.895210192218869] [0:83.081665124481461] [0:25.931647527783198] [0:102.07353130781173] [0:16.092500249709797] [0:39.62113475307212] [0:17.775429033736771] [0:39.160641014114987] [0:28.507988286288807] [0:93.017628840616581] [0:21.273028194396751] [0:48.157498971304207] [0:47.469265695377665] [0:17.722307403065194] [0:36.848493384548384] [0:14.964647106924795] [0:58.206135787475091] [0:64.585779295280531] [0:32.473715989484788] [0:20.656425475087715] [0:31.144534411029049] [0:25.579198139010476] [0:28.561781469808583] [0:21.82183268045069] [0:20.380453989139912] [0:19.063976939876095] [0:80.978690568869112] [0:42.039176124089884] [0:46.829943737326893] [0:60.338422465885884] [0:26.464696203074489] [0:17.743471473602856] [0:16.365878266028322] [0:15.732447229336397] [0:60.591307166357574] [0:26.820833749516328] [0:83.253233310803367] [0:70.026162752345627] [0:34.00579614033785] [0:126.73240129479217] [0:93.964642657364095] [0:90.828242777913289] [0:38.309811447114413] [0:28.231411630454659] [0:52.268715771818542] [0:21.122066882465361] [0:28.666652345117896] [0:50.766527134227459] [0:21.763437482766079] [0:31.98696272061057] [0:16.711190599982309] [0:15.300764690356189] [0:20.219628307227751] [0:15.285340491854935] [0:24.31390759958181] [0:26.922532170701942] [0:31.358696996076389] [0:40.410952439998944] [0:24.114678056845811] [0:37.895210192218869] [0:16.194899268818173] [0:16.236857994742394] [0:15.644464384052837] [0:66.850762967761796] [0:98.842014792219132] [0:53.947093759054255] [0:22.354795941059919] [0:27.388819638134855] [0:51.344364307038418] [0:20.612709192958956] [0:20.04610712470685] [0:40.478762867580159] [0:34.510236228478703] [0:32.601834736308192] [0:35.847622885817671] [0:20.421691467775357] [0:32.645156224149119] [0:16.279411899718262] [0:23.941916149312512] [0:60.718144301370238] [0:13.743647023446051] [0:36.423289573476474] [0:38.250142720266389] [0:21.73455649087213] [0:21.261104651828454] [0:31.536751604953089] [0:25.343564530338476] [0:49.505207448538286] [0:131.84953530366786] [0:64.176423021023197] [0:15.958747488788552] [0:31.432640918483603] [0:46.311076531612613] [0:22.127324595588988] [0:20.421691467775357] [0:32.144866570514814] [0:131.69390126584653] [0:32.026050806737736] [0:42.009025342122342] [0:16.013025403368868] [0:39.362266492398319] [0:33.164294302218849] [0:10.488298152890932] [0:25.468022897514746] [0:35.847622885817671] [0:44.985507948511689] [0:21.395340902009394] [0:14.492336366490562] [0:17.349711182349846] [0:20.612709192958956] [0:45.125801897091073] [0:30.012822244961235] [0:27.698996592732115] [0:43.69215878715368] [0:83.709319696000193] [0:26.161573093992313] [0:31.017696147497393] [0:32.111586780394767] [0:77.962944539289992] [0:39.064349191466754] [0:25.820531843859644] [0:25.527114334719197] [0:19.078764387401399] [0:28.029695605254844] [0:27.464578663237866] [0:62.593787031079792] [0:24.737890282882194] [0:19.26061388370843] [0:22.437900347240117] [0:23.960819763512042] [0:48.281500200423629] [0:28.573865937316363] [0:52.615481900775841] [0:26.161573093992313] [0:36.045764570774331] [0:59.593040028844648] [0:161.67854330774503] [0:150.60239531709277] [0:32.732749020676039] [0:63.292354260503551] [0:37.05057468430428] [0:25.105027625656284] [0:50.947442956012061] [0:28.937613668214976] [0:21.376930140009794] [0:20.180412306841266] [0:34.789652480316803] [0:44.138531257408033] [0:21.73455649087213] [0:50.076828100039215] [0:31.050937229751085] [0:60.826268945691943] [0:34.360548173986558] [0:41.985023233572683] [0:50.947442956012061] [0:28.984672732981124] [0:29.230253964616967] [0:44.151173165565119] [0:38.677788536969636] [0:34.855627499205447] [0:33.483727878400074] [0:21.515525999051601] [0:22.286582059040985] [0:30.146592958444955] [0:31.14144271315708] [0:16.819193007256334] [0:38.51297748525527] [0:17.407823584601484] [0:27.313778321277738] [0:15.954771145797563] [0:19.276147883814019] [0:21.191122671429945] [0:21.295133943439222] [0:16.630051915296285] [0:22.0338848327414] [0:99.101915171437895] [0:30.790026558112654] [0:26.854503910423048] [0:14.178617954731834] [0:43.64366536090138] [0:29.152348315324485] [0:20.836231026536783] [0:26.991498781363621] [0:33.787946574832091] [0:20.103619230963574] [0:24.715461688141936] [0:22.418337065515153] [0:16.827622936614592] [0:14.600564535911992] [0:32.750459875243536] [0:26.097660554155322] [0:16.388498495961699] [0:26.171133418831715] [0:15.43363696139221] [0:24.568176405506456] [0:35.745725618129867] [0:14.30907329055105] [0:26.559336252502082] [0:16.433291782880914] [0:15.239538075462569] [0:26.105180860631059] [0:33.80622808847734] [0:20.905797997384258] [0:16.0524996571014] [0:21.711235410117055] [0:32.307038604842333] [0:18.312611539805886] [0:16.258059496411668] [0:26.000774811067132] [0:70.495519676166978] [0:37.232199991137257] [0:70.86531196201139] [0:102.13603523116413] [0:20.219628307227751] [0:29.45116525022739] [0:43.655941434456153] [0:31.609479768147157] [0:62.369626712033778] [0:27.659155744486235] [0:21.705882532957681] [0:46.576405844626628] [0:37.05057468430428] [0:21.792528520082399] [0:28.421407644164152] [0:26.754166095169005] [0:37.838067092119829] [0:27.061429991237318] [0:27.820460055577342] [0:27.820460055577342] [0:34.509389676634839] [0:31.683100323698042] [0:36.463404296439371] [0:23.141600718347455] [0:39.866989549707725] [0:71.882459290536119] [0:26.854503910423048] [0:65.460125413583611] [0:20.929258475193851] [0:31.876851367717752] [0:37.156223631170747] [0:19.98990011088425] [0:161.59735279730754] [0:23.613330791027437] [0:37.40962774501714] [0:23.720477748306934] [0:32.198544420384664] [0:25.299226792237597] [0:20.590689067946208] [0:21.911055710507885] [0:35.318957772487522] [0:69.081474732122786] [0:14.38787707101288] [0:41.943269519467883] [0:43.762186047182503] [0:32.378758092785134] [0:18.487639461234288] [0:35.053288404514291] [0:18.204007583542079] [0:161.33041407209964] [0:16.258059496411668] [0:72.147371776673666] [0:175.20802814015113] [0:16.258059496411668] [0:16.298775108008972] [0:34.342332940244113] [0:192.45139976596747] [0:232.97289214587514] [0:117.56353130056601] [0:61.580053116225308] [0:47.090831569186165] [0:30.58210716411444] [0:20.060026975764167] [0:19.432679632861468] [0:22.159197274185694] [0:21.17175696245959] [0:16.133041407209966] [0:22.890764424757357] [0:21.000476973727878] [0:16.153519302421167] [0:37.395047336368201] [0:25.812029794469865] [0:28.357235909463668] [0:28.035594666157813] [0:20.438586084442647] [0:20.259232591158597] [0:38.069130085310121] [0:17.775429033736771] [0:32.777029664461772] [0:19.483779322222091] [0:38.450410128533008] [0:18.933293810717899] [0:22.159197274185694] [0:32.940260747960899] [0:42.009025342122342] [0:16.344396390061799] [0:19.005367832728613] [0:21.649143992989856] [0:21.17175696245959] [0:15.714643022776954] [0:15.592887182431717] [0:114.68423850140988] [0:52.304834444067197] [0:49.165544496692661] [0:32.42204043461112] [0:14.856037960932914] [0:20.04610712470685] [0:27.009869993492565] [0:22.382344220114767] [0:18.109885593901303] [0:222.159001657658] [0:16.112702346253826] [0:22.799852829341404] [0:43.912577967228344] [0:31.0883092091482] [0:37.094461975399454] [0:64.034039489250105] [0:30.951761418043823] [0:101.29204861526681] [0:27.388819638134855] [0:41.346401939494783] [0:107.71110952733234] [0:21.273028194396751] [0:23.310034226349156] [0:15.878817721844692] [0:15.935601751501249] [0:10.755360938139976] [0:38.18820719078871] [0:22.536634161914293] [0:21.580119434621537] [0:32.473715989484788] [0:13.894622275108599] [0:59.914015777974711] [0:38.459451398665578] [0:26.754166095169005] [0:19.43489887688299] [0:10.061149952294814] [0:16.300917368154096] [0:19.092311568074571] [0:29.688707102141777] [0:32.389798537636345] [0:14.320205028740657] [0:38.428741188208249] [0:16.072433285257407] [0:10.476428681851303] [0:28.573865937316363] [0:18.591205116965252] [0:17.587404864233051] [0:71.391269376625516] [0:34.287153163778228] [0:26.688375672281449] [0:29.502447613698148] [0:32.821639535386879] [0:22.033202605948208] [0:32.673686377206266] [0:51.106176838209436] [0:42.649283627480763] [0:29.673439920517257] [0:20.656425475087715] [0:37.104106183001207] [0:20.239381433790079] [0:36.343743262924264] [0:41.683866825325794] [0:26.103092895176356] [0:20.569465528542093] [0:51.696160245828992] [0:21.298751755717912] [0:32.133225128382477] [0:20.401019587141587] [0:32.720666419322178] [0:111.78446492337252] [0:32.198544420384664] [0:20.836231026536783] [0:31.671980471721561] [0:52.640386135130932] [0:12.885205565244959] [0:16.306175665161618] [0:15.492319106315787] [0:32.911866799574121] [0:20.359993586472829] [0:23.811554947763636] [0:31.117977033339841] [0:34.540737366061393] [0:247.68729597045788] [0:70.949242771038612] [0:20.745318022226559] [0:305.27165894037046] [0:31.909542291595127] [0:51.090886562576223] [0:36.503750229456621] [0:20.027283560557198] [0:14.320205028740657] [0:53.776804690699876] [0:37.203320971173177] [0:36.383403425674011] [0:37.952764397291091] [0:63.590506243541924] [0:32.42078530858673] [0:27.541503257435259] [0:27.820460055577342] [0:23.979795118354801] [0:59.005834248935926] [0:35.113784456608606] [0:20.30593854354354] [0:29.250981286340359] [0:19.952862809233061] [0:38.718044691704797] [0:43.741516285421554] [0:27.096765827352783] [0:53.390630418906944] [0:15.285340491854935] [0:20.656425475087715] [0:50.798460251541897] [0:68.305620923670588] [0:37.614628696505093] [0:20.569465528542093] [0:31.254346539805177] [0:20.421691467775357] [0:107.7085324078995] [0:37.753110541500149] [0:40.558365514405502] [0:228.94517264881679] [0:38.634903222840364] [0:30.919063789438432] [0:31.795253121770962] [0:26.097660554155322] [0:20.767524787132665] [0:19.814422989089415] [0:31.903924151591674] [0:24.437082326454473] [0:17.690769788968598] [0:10.548725710083925] [0:27.168195613590164] [0:59.585228087717347] [0:37.422028812197311] [0:38.086015594840639] [0:19.000175722183744] [0:29.738802023962112] [0:45.245686388173652] [0:54.122859982474637] [0:52.682466280245265] [0:15.860126072592784] [0:30.388848886737897] [0:26.655802267175478] [0:24.134247553451491] [0:64.557334843344549] [0:61.305652648485321] [0:26.655802267175478] [0:13.953256063327508] [0:64.203976549625693] [0:10.910916340225345] [0:40.238632693907853] [0:26.610084382318387] [0:21.298751755717912] [0:22.300150588398967] [0:34.329968755761797] [0:19.772652153469288] [0:24.113844386813557] [0:42.806665752270405] [0:25.010685204134365] [0:53.180842896081998] [0:24.941078511541328] [0:27.903106565333395] [0:32.026050806737736] [0:32.431610553532906] [0:42.393670829027947] [0:20.976596305781865] [0:20.239381433790079] [0:40.558365514405502] [0:21.649143992989856] [0:33.003471632358853] [0:32.431610553532906] [0:50.846527660982666] [0:26.655802267175478] [0:173.9462082355729] [0:51.418190087506275] [0:26.655802267175478] [0:20.219628307227751] [0:133.70837952340733] [0:46.092112819714437] [0:21.615538709063564] [0:30.24142132235486] [0:30.2706184602619] [0:19.952862809233061] [0:147.68756659758773] [0:30.601529380712378] [0:20.745318022226559] [0:23.702459710790436] [0:29.985295499414875] [0:92.860237830094221] [0:21.881093023591252] [0:68.231781944694063] [0:26.191071704628257] [0:38.39717793283647] [0:84.307607222892415] [0:21.298751755717912] [0:13.396439167342077] [0:20.319384100616759] [0:21.350700537825158] [0:15.508848073748696] [0:18.947605096109434] [0:34.449629789276905] [0:77.210056463261907] [0:16.388514832230886] [0:36.891632104035708] [0:32.744600868233249] [0:23.578119377900371] [0:53.150810037257592] [0:11.810345921745739] [0:35.279439575088787] [0:21.883242543703716] [0:24.008800002822355] [0:15.133286653852034] [0:9.9580826520644479] [0:15.100274086825152] [0:16.61401982970613] [0:21.152578641661815] [0:29.294738524274731] [0:14.978503944493678] [0:63.973925441221141] [0:14.094696398604613] [0:29.614023256710844] [0:36.423289573476474] [0:31.757635443689384] [0:47.038045494114584] [0:23.756709790910765] [0:20.319384100616759] [0:26.155799222436777] [0:33.238795911278544] [0:36.110388321051126] [0:96.19618563004407] [0:27.277290850563361] [0:51.429713962586803] [0:69.750781337999342] [0:104.14201338249666] [0:44.370303722329766] [0:84.478719111813433] [0:74.823235534623976] [0:39.846064209647189] [0:30.329442460841626] [0:41.597188787777149] [0:35.558922176079328] [0:21.09745142016785] [0:35.080687468236988] [0:20.557693664849754] [0:24.416580611790344] [0:29.68546833945863] [0:48.039076210106607] [0:17.189501311384937] [0:42.664427479422784] [0:106.37306625848203] [0:54.705941902190034] [0:33.292297032990376] [0:35.281658209414005] [0:424.13588937867729] [0:29.250871662450521] [0:31.795253121770962] [0:24.849751771654862] [0:28.573865937316363] [0:43.76503367924726] [0:28.826964695124687] [0:67.478171129825697] [0:56.95284221386818] [0:67.412148592979506] [0:77.340541824677643] [0:82.257213154721839] [0:32.69713698540324] [0:41.182057846163197] [0:49.099123531014051] [0:110.39467669801543] [0:104.33330330699978] [0:37.506311288061767] [0:24.625768884997257] [0:22.893949436637524] [0:18.848484980115487] [0:42.615910772537042] [0:60.733292743585352] [0:15.90478376982449] [0:49.93048341219319] [0:27.705567217177904] [0:28.159573037271144] [0:31.084363500047822] [0:24.257592230830923] [0:58.571567328224262] [0:27.731459191851432] [0:19.113816977571524] [0:30.790026558112654] [0:32.601834736308192] [0:69.204282537142504] [0:10.464629237596926] [0:48.229356113691622] [0:21.565517253712603] [0:32.601834736308192] [0:23.998842760438137] [0:18.876555270750075] [0:29.077689312090925] [0:140.1032795471514] [0:41.010928326312658] [0:21.072986512098105] [0:21.881093023591252] [0:15.592887182431717] [0:40.617370202816673] [0:75.722637556523381] [0:45.789777253658819] [0:47.864313437392688] [0:60.937792504010659] [0:38.52984119154894] [0:441.71706083342929] [0:229.55392156092287] [0:40.532273210906951] [0:18.670677929832152] [0:16.072433285257407] [0:22.223714801905228] [0:15.679348498038195] [0:25.903636250039849] [0:24.628476726634652] [0:10.838706330941113] [0:16.279411899718262] [0:27.277290850563361] [0:18.462161668092364] [0:21.17175696245959] [0:26.956896567140753] [0:39.475128418355879] [0:31.611374032519752] [0:66.573977882924254] [0:49.033189170185395] [0:21.17175696245959] [0:21.881093023591252] [0:17.916940390063374] [0:34.073218010831297] [0:26.496044268142466] [0:34.178307947332002] [0:16.279411899718262] [0:51.210889836882387] [0:29.45116525022739] [0:42.009025342122342] [0:27.739157451218439] [0:35.745725618129867] [0:587.58650726655776] [0:27.395968082829974] [0:31.683100323698042] [0:21.792528520082399] [0:58.085683926779744] [0:15.592887182431717] [0:26.787388808762348] [0:21.941244533049414] [0:33.815451521811312] [0:38.993684609915718] [0:16.322578112074559] [0:82.018250146147253] [0:29.985295499414875] [0:40.091490451894096] [0:136.0231845613514] [0:43.131034507425206] [0:15.841550161849021] [0:29.244583549969043] [0:22.494080713574753] [0:28.357235909463668] [0:27.414122408329195] [0:15.916554068465274] [0:55.083006514870519] [0:16.153519302421167] [0:26.371814275209815] [0:20.027283560557198] [0:26.787388808762348] [0:23.560606225144358] [0:21.771989499029615] [0:27.828079637250905] [0:40.96871186950591] [0:35.891914670540636] [0:24.293623596103735] [0:24.354724152777614] [0:34.776717651993586] [0:22.159197274185694] [0:25.765886491198696] [0:21.024501069968725] [0:37.502344332267285] [0:22.725335801828528] [0:20.591028923081598] [0:25.424546635553682] [0:18.862495502320296] [0:20.299232924496931] [0:54.628382774102953] [0:68.884913432272654] [0:77.297659473596084] [0:48.386839683373012] [0:35.21402483303185] [0:21.350700537825158] [0:25.324040738948245] [0:21.792528520082399] [0:57.529925390074652] [0:21.565517253712603] [0:21.483603128338437] [0:34.540737366061393] [0:40.478762867580159] [0:36.173394246328002] [0:30.154672823303486] 